=== Run information ===

Scheme:       weka.classifiers.trees.REPTree -M 2 -V 0.001 -N 3 -S 1 -L -1 -I 0.0
Relation:     normalização_sequencias-weka.filters.unsupervised.attribute.Remove-R1-139,141-883,885-1107,1109-1219,1221-1981,1983-4080,4082-4262,4264-4289,4291-4692,4694-5461,5463,5466-weka.filters.unsupervised.attribute.Remove-R1-4,9,11-weka.filters.unsupervised.attribute.Remove-R3
Instances:    18040
Attributes:   6
              AGCGGA
              GGGCTA
              GTCGTC
              score
              cdsSizes
              classes
Test mode:    user supplied test set:  size unknown (reading incrementally)

=== Classifier model (full training set) ===


REPTree
============

cdsSizes < 362.5
|   cdsSizes < 299.5 : lncRNA (5079/554) [2568/303]
|   cdsSizes >= 299.5
|   |   score < 548.5 : lncRNA (1596/280) [812/128]
|   |   score >= 548.5
|   |   |   GTCGTC < 0
|   |   |   |   GTCGTC < 0 : lncRNA (169/17) [62/12]
|   |   |   |   GTCGTC >= 0
|   |   |   |   |   GTCGTC < 0 : mRNA (2/0) [1/0]
|   |   |   |   |   GTCGTC >= 0 : lncRNA (7/2) [5/2]
|   |   |   GTCGTC >= 0 : lncRNA (15/0) [6/1]
cdsSizes >= 362.5 : mRNA (5158/0) [2560/0]

Size of the tree : 13

Time taken to build model: 0.07 seconds

=== Predictions on test set ===

    inst#     actual  predicted error prediction
        1        1:?   1:lncRNA       0.888 
        2        1:?   1:lncRNA       0.831 
        3        1:?   1:lncRNA       0.888 
        4        1:?   1:lncRNA       0.888 
        5        1:?   1:lncRNA       0.888 
        6        1:?   1:lncRNA       0.888 
        7        1:?   1:lncRNA       0.888 
        8        1:?   1:lncRNA       0.888 
        9        1:?   1:lncRNA       0.831 
       10        1:?   1:lncRNA       0.831 
       11        1:?   1:lncRNA       0.888 
       12        1:?   1:lncRNA       0.888 
       13        1:?   1:lncRNA       0.888 
       14        1:?   1:lncRNA       0.888 
       15        1:?   1:lncRNA       0.888 
       16        1:?   1:lncRNA       0.831 
       17        1:?   1:lncRNA       0.888 
       18        1:?   1:lncRNA       0.888 
       19        1:?   1:lncRNA       0.888 
       20        1:?   1:lncRNA       0.888 
       21        1:?   1:lncRNA       0.831 
       22        1:?   1:lncRNA       0.888 
       23        1:?   1:lncRNA       0.831 
       24        1:?   1:lncRNA       0.831 
       25        1:?   1:lncRNA       0.888 
       26        1:?   1:lncRNA       0.831 
       27        1:?   1:lncRNA       0.888 
       28        1:?   1:lncRNA       0.831 
       29        1:?   1:lncRNA       0.831 
       30        1:?   1:lncRNA       0.888 
       31        1:?   1:lncRNA       0.888 
       32        1:?   1:lncRNA       0.831 
       33        1:?   1:lncRNA       0.888 
       34        1:?   1:lncRNA       0.831 
       35        1:?   1:lncRNA       0.874 
       36        1:?   1:lncRNA       0.888 
       37        1:?   1:lncRNA       0.888 
       38        1:?   1:lncRNA       0.888 
       39        1:?   1:lncRNA       0.888 
       40        1:?   1:lncRNA       0.888 
       41        1:?   1:lncRNA       0.888 
       42        1:?   1:lncRNA       0.831 
       43        1:?   1:lncRNA       0.888 
       44        1:?   1:lncRNA       0.888 
       45        1:?   1:lncRNA       0.888 
       46        1:?   1:lncRNA       0.888 
       47        1:?   1:lncRNA       0.888 
       48        1:?   1:lncRNA       0.888 
       49        1:?   1:lncRNA       0.888 
       50        1:?   1:lncRNA       0.831 
       51        1:?   1:lncRNA       0.888 
       52        1:?   1:lncRNA       0.831 
       53        1:?   1:lncRNA       0.888 
       54        1:?   1:lncRNA       0.888 
       55        1:?   1:lncRNA       0.888 
       56        1:?   1:lncRNA       0.888 
       57        1:?   1:lncRNA       0.888 
       58        1:?   1:lncRNA       0.888 
       59        1:?   1:lncRNA       0.888 
       60        1:?   1:lncRNA       0.888 
       61        1:?   1:lncRNA       0.888 
       62        1:?   1:lncRNA       0.888 
       63        1:?   1:lncRNA       0.888 
       64        1:?   1:lncRNA       0.888 
       65        1:?   1:lncRNA       0.888 
       66        1:?   1:lncRNA       0.888 
       67        1:?   1:lncRNA       0.888 
       68        1:?   1:lncRNA       0.831 
       69        1:?   1:lncRNA       0.831 
       70        1:?   1:lncRNA       0.888 
       71        1:?   1:lncRNA       0.831 
       72        1:?   1:lncRNA       0.888 
       73        1:?   1:lncRNA       0.888 
       74        1:?   1:lncRNA       0.831 
       75        1:?   1:lncRNA       0.831 
       76        1:?   1:lncRNA       0.888 
       77        1:?   1:lncRNA       0.831 
       78        1:?   1:lncRNA       0.888 
       79        1:?   1:lncRNA       0.831 
       80        1:?   1:lncRNA       0.831 
       81        1:?   1:lncRNA       0.888 
       82        1:?   1:lncRNA       0.831 
       83        1:?   1:lncRNA       0.831 
       84        1:?   1:lncRNA       0.888 
       85        1:?   1:lncRNA       0.888 
       86        1:?   1:lncRNA       0.874 
       87        1:?   1:lncRNA       0.888 
       88        1:?   1:lncRNA       0.888 
       89        1:?   1:lncRNA       0.888 
       90        1:?   1:lncRNA       0.888 
       91        1:?   1:lncRNA       0.888 
       92        1:?   1:lncRNA       0.888 
       93        1:?   1:lncRNA       0.888 
       94        1:?   1:lncRNA       0.831 
       95        1:?   1:lncRNA       0.888 
       96        1:?   1:lncRNA       0.888 
       97        1:?   1:lncRNA       0.888 
       98        1:?   1:lncRNA       0.831 
       99        1:?   1:lncRNA       0.888 
      100        1:?   1:lncRNA       0.874 
      101        1:?   1:lncRNA       0.888 
      102        1:?   1:lncRNA       0.831 
      103        1:?   1:lncRNA       0.888 
      104        1:?   1:lncRNA       0.888 
      105        1:?   1:lncRNA       0.888 
      106        1:?   1:lncRNA       0.888 
      107        1:?   1:lncRNA       0.888 
      108        1:?   1:lncRNA       0.888 
      109        1:?   1:lncRNA       0.888 
      110        1:?   1:lncRNA       0.888 
      111        1:?   1:lncRNA       0.831 
      112        1:?   1:lncRNA       0.888 
      113        1:?   1:lncRNA       0.888 
      114        1:?   1:lncRNA       0.888 
      115        1:?   1:lncRNA       0.888 
      116        1:?   1:lncRNA       0.888 
      117        1:?   1:lncRNA       0.888 
      118        1:?   1:lncRNA       0.888 
      119        1:?   1:lncRNA       0.888 
      120        1:?   1:lncRNA       0.888 
      121        1:?   1:lncRNA       0.888 
      122        1:?   1:lncRNA       0.888 
      123        1:?   1:lncRNA       0.888 
      124        1:?   1:lncRNA       0.888 
      125        1:?   1:lncRNA       0.831 
      126        1:?   1:lncRNA       0.888 
      127        1:?   1:lncRNA       0.888 
      128        1:?   1:lncRNA       0.888 
      129        1:?   1:lncRNA       0.888 
      130        1:?   1:lncRNA       0.888 
      131        1:?   1:lncRNA       0.888 
      132        1:?   1:lncRNA       0.888 
      133        1:?   1:lncRNA       0.831 
      134        1:?   1:lncRNA       0.888 
      135        1:?   1:lncRNA       0.888 
      136        1:?   1:lncRNA       0.888 
      137        1:?   1:lncRNA       0.888 
      138        1:?   1:lncRNA       0.888 
      139        1:?   1:lncRNA       0.888 
      140        1:?   1:lncRNA       0.888 
      141        1:?   1:lncRNA       0.888 
      142        1:?   1:lncRNA       0.888 
      143        1:?   1:lncRNA       0.888 
      144        1:?   1:lncRNA       0.888 
      145        1:?   1:lncRNA       0.888 
      146        1:?   1:lncRNA       0.888 
      147        1:?   1:lncRNA       0.888 
      148        1:?   1:lncRNA       0.888 
      149        1:?   1:lncRNA       0.888 
      150        1:?   1:lncRNA       0.888 
      151        1:?   1:lncRNA       0.888 
      152        1:?   1:lncRNA       0.888 
      153        1:?   1:lncRNA       0.831 
      154        1:?   1:lncRNA       0.888 
      155        1:?   1:lncRNA       0.888 
      156        1:?   1:lncRNA       0.831 
      157        1:?   1:lncRNA       0.888 
      158        1:?   1:lncRNA       0.888 
      159        1:?   1:lncRNA       0.888 
      160        1:?   1:lncRNA       0.888 
      161        1:?   1:lncRNA       0.831 
      162        1:?   1:lncRNA       0.888 
      163        1:?   1:lncRNA       0.888 
      164        1:?   1:lncRNA       0.888 
      165        1:?   1:lncRNA       0.831 
      166        1:?   1:lncRNA       0.874 
      167        1:?   1:lncRNA       0.888 
      168        1:?   1:lncRNA       0.888 
      169        1:?   1:lncRNA       0.888 
      170        1:?   1:lncRNA       0.888 
      171        1:?   1:lncRNA       0.888 
      172        1:?   1:lncRNA       0.888 
      173        1:?   1:lncRNA       0.888 
      174        1:?   1:lncRNA       0.888 
      175        1:?   1:lncRNA       0.888 
      176        1:?   1:lncRNA       0.831 
      177        1:?   1:lncRNA       0.888 
      178        1:?   1:lncRNA       0.888 
      179        1:?   1:lncRNA       0.888 
      180        1:?   1:lncRNA       0.831 
      181        1:?   1:lncRNA       0.888 
      182        1:?   1:lncRNA       0.888 
      183        1:?   1:lncRNA       0.888 
      184        1:?   1:lncRNA       0.888 
      185        1:?   1:lncRNA       0.888 
      186        1:?   1:lncRNA       0.888 
      187        1:?   1:lncRNA       0.831 
      188        1:?   1:lncRNA       0.888 
      189        1:?   1:lncRNA       0.888 
      190        1:?   1:lncRNA       0.888 
      191        1:?   1:lncRNA       0.831 
      192        1:?   1:lncRNA       0.888 
      193        1:?   1:lncRNA       0.888 
      194        1:?   1:lncRNA       0.888 
      195        1:?   1:lncRNA       0.831 
      196        1:?   1:lncRNA       0.888 
      197        1:?   1:lncRNA       0.888 
      198        1:?   1:lncRNA       0.888 
      199        1:?   1:lncRNA       0.888 
      200        1:?   1:lncRNA       0.888 
      201        1:?   1:lncRNA       0.831 
      202        1:?   1:lncRNA       0.831 
      203        1:?   1:lncRNA       0.888 
      204        1:?   1:lncRNA       0.888 
      205        1:?   1:lncRNA       0.888 
      206        1:?   1:lncRNA       0.888 
      207        1:?   1:lncRNA       0.888 
      208        1:?   1:lncRNA       0.831 
      209        1:?   1:lncRNA       0.888 
      210        1:?   1:lncRNA       0.831 
      211        1:?   1:lncRNA       0.888 
      212        1:?   1:lncRNA       0.888 
      213        1:?   1:lncRNA       0.831 
      214        1:?   1:lncRNA       0.888 
      215        1:?   1:lncRNA       0.888 
      216        1:?   1:lncRNA       0.888 
      217        1:?   1:lncRNA       0.888 
      218        1:?   1:lncRNA       0.888 
      219        1:?   1:lncRNA       0.888 
      220        1:?   1:lncRNA       0.888 
      221        1:?   1:lncRNA       0.888 
      222        1:?   1:lncRNA       0.831 
      223        1:?   1:lncRNA       0.888 
      224        1:?   1:lncRNA       0.888 
      225        1:?   1:lncRNA       0.888 
      226        1:?   1:lncRNA       0.888 
      227        1:?   1:lncRNA       0.831 
      228        1:?   1:lncRNA       0.831 
      229        1:?   1:lncRNA       0.888 
      230        1:?   1:lncRNA       0.888 
      231        1:?   1:lncRNA       0.888 
      232        1:?   1:lncRNA       0.888 
      233        1:?   1:lncRNA       0.888 
      234        1:?   1:lncRNA       0.888 
      235        1:?   1:lncRNA       0.888 
      236        1:?   1:lncRNA       0.888 
      237        1:?   1:lncRNA       0.888 
      238        1:?   1:lncRNA       0.888 
      239        1:?   1:lncRNA       0.888 
      240        1:?   1:lncRNA       0.888 
      241        1:?   1:lncRNA       0.888 
      242        1:?   1:lncRNA       0.888 
      243        1:?   1:lncRNA       0.831 
      244        1:?   1:lncRNA       0.831 
      245        1:?   1:lncRNA       0.888 
      246        1:?   1:lncRNA       0.888 
      247        1:?   1:lncRNA       0.874 
      248        1:?   1:lncRNA       0.888 
      249        1:?   1:lncRNA       0.888 
      250        1:?   1:lncRNA       0.874 
      251        1:?   1:lncRNA       0.888 
      252        1:?   1:lncRNA       0.888 
      253        1:?   1:lncRNA       0.888 
      254        1:?   1:lncRNA       0.888 
      255        1:?   1:lncRNA       0.888 
      256        1:?   1:lncRNA       0.831 
      257        1:?   1:lncRNA       0.888 
      258        1:?   1:lncRNA       0.888 
      259        1:?   1:lncRNA       0.888 
      260        1:?   1:lncRNA       0.888 
      261        1:?   1:lncRNA       0.831 
      262        1:?   1:lncRNA       0.888 
      263        1:?   1:lncRNA       0.888 
      264        1:?   1:lncRNA       0.888 
      265        1:?   1:lncRNA       0.888 
      266        1:?   1:lncRNA       0.831 
      267        1:?   1:lncRNA       0.888 
      268        1:?   1:lncRNA       0.888 
      269        1:?   1:lncRNA       0.831 
      270        1:?   1:lncRNA       0.888 
      271        1:?   1:lncRNA       0.888 
      272        1:?   1:lncRNA       0.888 
      273        1:?   1:lncRNA       0.831 
      274        1:?   1:lncRNA       0.888 
      275        1:?   1:lncRNA       0.888 
      276        1:?   1:lncRNA       0.888 
      277        1:?   1:lncRNA       0.888 
      278        1:?   1:lncRNA       0.888 
      279        1:?   1:lncRNA       0.888 
      280        1:?   1:lncRNA       0.888 
      281        1:?   1:lncRNA       0.888 
      282        1:?   1:lncRNA       0.888 
      283        1:?   1:lncRNA       0.888 
      284        1:?   1:lncRNA       0.888 
      285        1:?   1:lncRNA       0.888 
      286        1:?   1:lncRNA       0.888 
      287        1:?   1:lncRNA       0.831 
      288        1:?   1:lncRNA       0.831 
      289        1:?   1:lncRNA       0.888 
      290        1:?   1:lncRNA       0.831 
      291        1:?   1:lncRNA       0.888 
      292        1:?   1:lncRNA       0.831 
      293        1:?   1:lncRNA       0.888 
      294        1:?   1:lncRNA       0.831 
      295        1:?   1:lncRNA       0.888 
      296        1:?   1:lncRNA       0.888 
      297        1:?   1:lncRNA       0.888 
      298        1:?   1:lncRNA       0.888 
      299        1:?   1:lncRNA       0.888 
      300        1:?   1:lncRNA       0.831 
      301        1:?   1:lncRNA       0.831 
      302        1:?   1:lncRNA       0.888 
      303        1:?   1:lncRNA       0.888 
      304        1:?   1:lncRNA       0.831 
      305        1:?   1:lncRNA       0.888 
      306        1:?   1:lncRNA       0.888 
      307        1:?   1:lncRNA       0.888 
      308        1:?   1:lncRNA       0.888 
      309        1:?   1:lncRNA       0.888 
      310        1:?   1:lncRNA       0.888 
      311        1:?   1:lncRNA       0.888 
      312        1:?   1:lncRNA       0.874 
      313        1:?   1:lncRNA       0.888 
      314        1:?   1:lncRNA       0.888 
      315        1:?   1:lncRNA       0.888 
      316        1:?   1:lncRNA       0.888 
      317        1:?   1:lncRNA       0.888 
      318        1:?   1:lncRNA       0.888 
      319        1:?   1:lncRNA       0.888 
      320        1:?   1:lncRNA       0.888 
      321        1:?   1:lncRNA       0.888 
      322        1:?   1:lncRNA       0.888 
      323        1:?   1:lncRNA       0.831 
      324        1:?   1:lncRNA       0.888 
      325        1:?   1:lncRNA       0.888 
      326        1:?   1:lncRNA       0.888 
      327        1:?   1:lncRNA       0.888 
      328        1:?   1:lncRNA       0.831 
      329        1:?   1:lncRNA       0.831 
      330        1:?   1:lncRNA       0.888 
      331        1:?   1:lncRNA       0.888 
      332        1:?   1:lncRNA       0.888 
      333        1:?   1:lncRNA       0.888 
      334        1:?   1:lncRNA       0.831 
      335        1:?   1:lncRNA       0.888 
      336        1:?   1:lncRNA       0.888 
      337        1:?   1:lncRNA       0.888 
      338        1:?   1:lncRNA       0.888 
      339        1:?   1:lncRNA       0.888 
      340        1:?   1:lncRNA       0.888 
      341        1:?   1:lncRNA       0.888 
      342        1:?   1:lncRNA       0.888 
      343        1:?   1:lncRNA       0.888 
      344        1:?   1:lncRNA       0.888 
      345        1:?   1:lncRNA       0.888 
      346        1:?   1:lncRNA       0.888 
      347        1:?   1:lncRNA       0.831 
      348        1:?   1:lncRNA       0.888 
      349        1:?   1:lncRNA       0.888 
      350        1:?   1:lncRNA       0.888 
      351        1:?   1:lncRNA       0.888 
      352        1:?   1:lncRNA       0.888 
      353        1:?   1:lncRNA       0.831 
      354        1:?   1:lncRNA       0.831 
      355        1:?   1:lncRNA       0.888 
      356        1:?   1:lncRNA       0.831 
      357        1:?   1:lncRNA       0.888 
      358        1:?   1:lncRNA       0.831 
      359        1:?   1:lncRNA       0.831 
      360        1:?   1:lncRNA       0.831 
      361        1:?   1:lncRNA       0.888 
      362        1:?   1:lncRNA       0.888 
      363        1:?   1:lncRNA       0.888 
      364        1:?   1:lncRNA       0.888 
      365        1:?   1:lncRNA       0.888 
      366        1:?   1:lncRNA       0.831 
      367        1:?   1:lncRNA       0.888 
      368        1:?   1:lncRNA       0.888 
      369        1:?   1:lncRNA       0.888 
      370        1:?   1:lncRNA       0.888 
      371        1:?   1:lncRNA       0.831 
      372        1:?   1:lncRNA       0.888 
      373        1:?   1:lncRNA       0.888 
      374        1:?   1:lncRNA       0.888 
      375        1:?   1:lncRNA       0.888 
      376        1:?   1:lncRNA       0.888 
      377        1:?   1:lncRNA       0.888 
      378        1:?   1:lncRNA       0.888 
      379        1:?   1:lncRNA       0.888 
      380        1:?   1:lncRNA       0.888 
      381        1:?   1:lncRNA       0.831 
      382        1:?   1:lncRNA       0.831 
      383        1:?   1:lncRNA       0.888 
      384        1:?   1:lncRNA       0.888 
      385        1:?   1:lncRNA       0.888 
      386        1:?   1:lncRNA       0.888 
      387        1:?   1:lncRNA       0.888 
      388        1:?   1:lncRNA       0.888 
      389        1:?   1:lncRNA       0.888 
      390        1:?   1:lncRNA       0.831 
      391        1:?   1:lncRNA       0.888 
      392        1:?   1:lncRNA       0.888 
      393        1:?   1:lncRNA       0.888 
      394        1:?   1:lncRNA       0.888 
      395        1:?   1:lncRNA       0.888 
      396        1:?   1:lncRNA       0.831 
      397        1:?   1:lncRNA       0.831 
      398        1:?   1:lncRNA       0.888 
      399        1:?   1:lncRNA       0.831 
      400        1:?   1:lncRNA       0.888 
      401        1:?   1:lncRNA       0.888 
      402        1:?   1:lncRNA       0.888 
      403        1:?   1:lncRNA       0.888 
      404        1:?   1:lncRNA       0.888 
      405        1:?   1:lncRNA       0.831 
      406        1:?   1:lncRNA       0.888 
      407        1:?   1:lncRNA       0.888 
      408        1:?   1:lncRNA       0.888 
      409        1:?   1:lncRNA       0.888 
      410        1:?   1:lncRNA       0.888 
      411        1:?   1:lncRNA       0.888 
      412        1:?   1:lncRNA       0.888 
      413        1:?   1:lncRNA       0.888 
      414        1:?   1:lncRNA       0.888 
      415        1:?   1:lncRNA       0.831 
      416        1:?   1:lncRNA       0.888 
      417        1:?   1:lncRNA       0.888 
      418        1:?   1:lncRNA       0.888 
      419        1:?   1:lncRNA       0.874 
      420        1:?   1:lncRNA       0.888 
      421        1:?   1:lncRNA       0.888 
      422        1:?   1:lncRNA       0.831 
      423        1:?   1:lncRNA       0.831 
      424        1:?   1:lncRNA       0.888 
      425        1:?   1:lncRNA       0.888 
      426        1:?   1:lncRNA       0.888 
      427        1:?   1:lncRNA       0.831 
      428        1:?   1:lncRNA       0.888 
      429        1:?   1:lncRNA       0.888 
      430        1:?   1:lncRNA       0.888 
      431        1:?   1:lncRNA       0.888 
      432        1:?   1:lncRNA       0.888 
      433        1:?   1:lncRNA       0.831 
      434        1:?   1:lncRNA       0.888 
      435        1:?   1:lncRNA       0.888 
      436        1:?   1:lncRNA       0.888 
      437        1:?   1:lncRNA       0.888 
      438        1:?   1:lncRNA       0.888 
      439        1:?   1:lncRNA       0.888 
      440        1:?   1:lncRNA       0.888 
      441        1:?   1:lncRNA       0.888 
      442        1:?   1:lncRNA       0.831 
      443        1:?   1:lncRNA       0.888 
      444        1:?   1:lncRNA       0.888 
      445        1:?   1:lncRNA       0.888 
      446        1:?   1:lncRNA       0.888 
      447        1:?   1:lncRNA       0.888 
      448        1:?   1:lncRNA       0.831 
      449        1:?   1:lncRNA       0.888 
      450        1:?   1:lncRNA       0.831 
      451        1:?   1:lncRNA       0.831 
      452        1:?   1:lncRNA       0.831 
      453        1:?   1:lncRNA       0.888 
      454        1:?   1:lncRNA       0.888 
      455        1:?   1:lncRNA       0.888 
      456        1:?   1:lncRNA       0.888 
      457        1:?   1:lncRNA       0.831 
      458        1:?   1:lncRNA       0.888 
      459        1:?   1:lncRNA       0.888 
      460        1:?   1:lncRNA       0.888 
      461        1:?   1:lncRNA       0.888 
      462        1:?   1:lncRNA       0.831 
      463        1:?   1:lncRNA       0.888 
      464        1:?   1:lncRNA       0.888 
      465        1:?   1:lncRNA       0.888 
      466        1:?   1:lncRNA       0.831 
      467        1:?   1:lncRNA       0.888 
      468        1:?   1:lncRNA       0.888 
      469        1:?   1:lncRNA       0.831 
      470        1:?   1:lncRNA       0.888 
      471        1:?   1:lncRNA       0.888 
      472        1:?   1:lncRNA       0.888 
      473        1:?   1:lncRNA       0.888 
      474        1:?   1:lncRNA       0.888 
      475        1:?   1:lncRNA       0.831 
      476        1:?   1:lncRNA       0.888 
      477        1:?   1:lncRNA       0.888 
      478        1:?   1:lncRNA       0.888 
      479        1:?   1:lncRNA       0.888 
      480        1:?   1:lncRNA       0.888 
      481        1:?   1:lncRNA       0.888 
      482        1:?   1:lncRNA       0.831 
      483        1:?   1:lncRNA       0.888 
      484        1:?   1:lncRNA       0.888 
      485        1:?   1:lncRNA       0.888 
      486        1:?   1:lncRNA       0.888 
      487        1:?   1:lncRNA       0.888 
      488        1:?   1:lncRNA       0.888 
      489        1:?   1:lncRNA       0.888 
      490        1:?   1:lncRNA       0.888 
      491        1:?   1:lncRNA       0.888 
      492        1:?   1:lncRNA       0.888 
      493        1:?   1:lncRNA       0.831 
      494        1:?   1:lncRNA       0.888 
      495        1:?   1:lncRNA       0.888 
      496        1:?   1:lncRNA       0.831 
      497        1:?   1:lncRNA       0.888 
      498        1:?   1:lncRNA       0.831 
      499        1:?   1:lncRNA       0.888 
      500        1:?   1:lncRNA       0.888 
      501        1:?   1:lncRNA       0.888 
      502        1:?   1:lncRNA       0.888 
      503        1:?   1:lncRNA       0.888 
      504        1:?   1:lncRNA       0.831 
      505        1:?   1:lncRNA       0.888 
      506        1:?   1:lncRNA       0.831 
      507        1:?   1:lncRNA       0.831 
      508        1:?   1:lncRNA       0.888 
      509        1:?   1:lncRNA       0.888 
      510        1:?   1:lncRNA       0.831 
      511        1:?   1:lncRNA       0.831 
      512        1:?   1:lncRNA       0.831 
      513        1:?   1:lncRNA       0.888 
      514        1:?   1:lncRNA       0.874 
      515        1:?   1:lncRNA       0.888 
      516        1:?   1:lncRNA       0.888 
      517        1:?   1:lncRNA       0.888 
      518        1:?   1:lncRNA       0.831 
      519        1:?   1:lncRNA       0.888 
      520        1:?   1:lncRNA       0.888 
      521        1:?   1:lncRNA       0.888 
      522        1:?   1:lncRNA       0.888 
      523        1:?   1:lncRNA       0.888 
      524        1:?   1:lncRNA       0.831 
      525        1:?   1:lncRNA       0.888 
      526        1:?   1:lncRNA       0.888 
      527        1:?   1:lncRNA       0.888 
      528        1:?   1:lncRNA       0.888 
      529        1:?   1:lncRNA       0.888 
      530        1:?   1:lncRNA       0.888 
      531        1:?   1:lncRNA       0.888 
      532        1:?   1:lncRNA       0.831 
      533        1:?   1:lncRNA       0.888 
      534        1:?   1:lncRNA       0.831 
      535        1:?   1:lncRNA       0.888 
      536        1:?   1:lncRNA       0.888 
      537        1:?   1:lncRNA       0.831 
      538        1:?   1:lncRNA       0.888 
      539        1:?   1:lncRNA       0.888 
      540        1:?   1:lncRNA       0.888 
      541        1:?   1:lncRNA       0.888 
      542        1:?   1:lncRNA       0.888 
      543        1:?   1:lncRNA       0.888 
      544        1:?   1:lncRNA       0.888 
      545        1:?   1:lncRNA       0.888 
      546        1:?   1:lncRNA       0.831 
      547        1:?   1:lncRNA       0.888 
      548        1:?   1:lncRNA       0.888 
      549        1:?   1:lncRNA       0.888 
      550        1:?   1:lncRNA       0.831 
      551        1:?   1:lncRNA       0.888 
      552        1:?   1:lncRNA       0.888 
      553        1:?   1:lncRNA       0.888 
      554        1:?   1:lncRNA       0.888 
      555        1:?   1:lncRNA       0.831 
      556        1:?   1:lncRNA       0.831 
      557        1:?   1:lncRNA       0.888 
      558        1:?   1:lncRNA       0.831 
      559        1:?   1:lncRNA       0.888 
      560        1:?   1:lncRNA       0.888 
      561        1:?   1:lncRNA       0.831 
      562        1:?   1:lncRNA       0.888 
      563        1:?   1:lncRNA       0.888 
      564        1:?   1:lncRNA       0.888 
      565        1:?   1:lncRNA       0.831 
      566        1:?   1:lncRNA       0.888 
      567        1:?   1:lncRNA       0.888 
      568        1:?   1:lncRNA       0.874 
      569        1:?   1:lncRNA       0.888 
      570        1:?   1:lncRNA       0.888 
      571        1:?   1:lncRNA       0.831 
      572        1:?   1:lncRNA       0.888 
      573        1:?   1:lncRNA       0.888 
      574        1:?   1:lncRNA       0.888 
      575        1:?   1:lncRNA       0.888 
      576        1:?   1:lncRNA       0.888 
      577        1:?   1:lncRNA       0.888 
      578        1:?   1:lncRNA       0.888 
      579        1:?   1:lncRNA       0.888 
      580        1:?   1:lncRNA       0.888 
      581        1:?   1:lncRNA       0.888 
      582        1:?   1:lncRNA       0.888 
      583        1:?   1:lncRNA       0.888 
      584        1:?   1:lncRNA       0.888 
      585        1:?   1:lncRNA       0.888 
      586        1:?   1:lncRNA       0.888 
      587        1:?   1:lncRNA       0.888 
      588        1:?   1:lncRNA       0.888 
      589        1:?   1:lncRNA       0.888 
      590        1:?   1:lncRNA       0.831 
      591        1:?   1:lncRNA       0.831 
      592        1:?   1:lncRNA       0.888 
      593        1:?   1:lncRNA       0.888 
      594        1:?   1:lncRNA       0.888 
      595        1:?   1:lncRNA       0.888 
      596        1:?   1:lncRNA       0.888 
      597        1:?   1:lncRNA       0.888 
      598        1:?   1:lncRNA       0.888 
      599        1:?   1:lncRNA       0.831 
      600        1:?   1:lncRNA       0.888 
      601        1:?   1:lncRNA       0.888 
      602        1:?   1:lncRNA       0.888 
      603        1:?   1:lncRNA       0.888 
      604        1:?   1:lncRNA       0.831 
      605        1:?   1:lncRNA       0.831 
      606        1:?   1:lncRNA       0.888 
      607        1:?   1:lncRNA       0.888 
      608        1:?   1:lncRNA       0.888 
      609        1:?   1:lncRNA       0.888 
      610        1:?   1:lncRNA       0.888 
      611        1:?   1:lncRNA       0.888 
      612        1:?   1:lncRNA       0.831 
      613        1:?   1:lncRNA       0.888 
      614        1:?   1:lncRNA       0.831 
      615        1:?   1:lncRNA       0.831 
      616        1:?   1:lncRNA       0.888 
      617        1:?   1:lncRNA       0.888 
      618        1:?   1:lncRNA       0.888 
      619        1:?   1:lncRNA       0.888 
      620        1:?   1:lncRNA       0.888 
      621        1:?   1:lncRNA       0.888 
      622        1:?   1:lncRNA       0.831 
      623        1:?   1:lncRNA       0.888 
      624        1:?   1:lncRNA       0.831 
      625        1:?   1:lncRNA       0.888 
      626        1:?   1:lncRNA       0.831 
      627        1:?   1:lncRNA       0.888 
      628        1:?   1:lncRNA       0.888 
      629        1:?   1:lncRNA       0.831 
      630        1:?   1:lncRNA       0.888 
      631        1:?   1:lncRNA       0.888 
      632        1:?   1:lncRNA       0.888 
      633        1:?   1:lncRNA       0.888 
      634        1:?   1:lncRNA       0.831 
      635        1:?   1:lncRNA       0.888 
      636        1:?   1:lncRNA       0.831 
      637        1:?   1:lncRNA       0.888 
      638        1:?   1:lncRNA       0.888 
      639        1:?   1:lncRNA       0.888 
      640        1:?   1:lncRNA       0.888 
      641        1:?   1:lncRNA       0.888 
      642        1:?   1:lncRNA       0.831 
      643        1:?   1:lncRNA       0.888 
      644        1:?   1:lncRNA       0.888 
      645        1:?   1:lncRNA       0.888 
      646        1:?   1:lncRNA       0.888 
      647        1:?   1:lncRNA       0.888 
      648        1:?   1:lncRNA       0.888 
      649        1:?   1:lncRNA       0.888 
      650        1:?   1:lncRNA       0.888 
      651        1:?   1:lncRNA       0.888 
      652        1:?   1:lncRNA       0.888 
      653        1:?   1:lncRNA       0.888 
      654        1:?   1:lncRNA       0.888 
      655        1:?   1:lncRNA       0.831 
      656        1:?   1:lncRNA       0.888 
      657        1:?   1:lncRNA       0.888 
      658        1:?   1:lncRNA       0.888 
      659        1:?   1:lncRNA       0.888 
      660        1:?   1:lncRNA       0.888 
      661        1:?   1:lncRNA       0.888 
      662        1:?   1:lncRNA       0.888 
      663        1:?   1:lncRNA       0.888 
      664        1:?   1:lncRNA       0.888 
      665        1:?   1:lncRNA       0.888 
      666        1:?   1:lncRNA       0.888 
      667        1:?   1:lncRNA       0.831 
      668        1:?   1:lncRNA       0.888 
      669        1:?   1:lncRNA       0.888 
      670        1:?   1:lncRNA       0.888 
      671        1:?   1:lncRNA       0.888 
      672        1:?   1:lncRNA       0.888 
      673        1:?   1:lncRNA       0.888 
      674        1:?   1:lncRNA       0.888 
      675        1:?   1:lncRNA       0.888 
      676        1:?   1:lncRNA       0.888 
      677        1:?   1:lncRNA       0.888 
      678        1:?   1:lncRNA       0.888 
      679        1:?   1:lncRNA       0.888 
      680        1:?   1:lncRNA       0.888 
      681        1:?   1:lncRNA       0.888 
      682        1:?   1:lncRNA       0.831 
      683        1:?   1:lncRNA       0.888 
      684        1:?   1:lncRNA       0.888 
      685        1:?   1:lncRNA       0.888 
      686        1:?   1:lncRNA       0.888 
      687        1:?   1:lncRNA       0.888 
      688        1:?   1:lncRNA       0.888 
      689        1:?   1:lncRNA       0.888 
      690        1:?   1:lncRNA       0.888 
      691        1:?   1:lncRNA       0.831 
      692        1:?   1:lncRNA       0.888 
      693        1:?   1:lncRNA       0.888 
      694        1:?   1:lncRNA       0.831 
      695        1:?   1:lncRNA       0.831 
      696        1:?   1:lncRNA       0.888 
      697        1:?   1:lncRNA       0.888 
      698        1:?   1:lncRNA       0.888 
      699        1:?   1:lncRNA       0.888 
      700        1:?   1:lncRNA       0.831 
      701        1:?   1:lncRNA       0.831 
      702        1:?   1:lncRNA       0.831 
      703        1:?   1:lncRNA       0.888 
      704        1:?   1:lncRNA       0.888 
      705        1:?   1:lncRNA       0.888 
      706        1:?   1:lncRNA       0.888 
      707        1:?   1:lncRNA       0.888 
      708        1:?   1:lncRNA       0.831 
      709        1:?   1:lncRNA       0.888 
      710        1:?   1:lncRNA       0.888 
      711        1:?   1:lncRNA       0.888 
      712        1:?   1:lncRNA       0.888 
      713        1:?   1:lncRNA       0.888 
      714        1:?   1:lncRNA       0.888 
      715        1:?   1:lncRNA       0.888 
      716        1:?   1:lncRNA       0.888 
      717        1:?   1:lncRNA       0.888 
      718        1:?   1:lncRNA       0.888 
      719        1:?   1:lncRNA       0.831 
      720        1:?   1:lncRNA       0.888 
      721        1:?   1:lncRNA       0.888 
      722        1:?   1:lncRNA       0.831 
      723        1:?   1:lncRNA       0.888 
      724        1:?   1:lncRNA       0.888 
      725        1:?   1:lncRNA       0.888 
      726        1:?   1:lncRNA       0.888 
      727        1:?   1:lncRNA       0.888 
      728        1:?   1:lncRNA       0.874 
      729        1:?   1:lncRNA       0.888 
      730        1:?   1:lncRNA       0.831 
      731        1:?   1:lncRNA       0.888 
      732        1:?   1:lncRNA       0.888 
      733        1:?   1:lncRNA       0.888 
      734        1:?   1:lncRNA       0.888 
      735        1:?   1:lncRNA       0.888 
      736        1:?   1:lncRNA       0.831 
      737        1:?   1:lncRNA       0.888 
      738        1:?   1:lncRNA       0.888 
      739        1:?   1:lncRNA       0.888 
      740        1:?   1:lncRNA       0.831 
      741        1:?   1:lncRNA       0.831 
      742        1:?   1:lncRNA       0.888 
      743        1:?   1:lncRNA       0.888 
      744        1:?   1:lncRNA       0.831 
      745        1:?   1:lncRNA       0.831 
      746        1:?   1:lncRNA       0.888 
      747        1:?   1:lncRNA       0.888 
      748        1:?   1:lncRNA       0.874 
      749        1:?   1:lncRNA       0.888 
      750        1:?   1:lncRNA       0.831 
      751        1:?   1:lncRNA       0.888 
      752        1:?   1:lncRNA       0.888 
      753        1:?   1:lncRNA       0.888 
      754        1:?   1:lncRNA       0.888 
      755        1:?   1:lncRNA       0.888 
      756        1:?   1:lncRNA       0.888 
      757        1:?   1:lncRNA       0.888 
      758        1:?   1:lncRNA       0.888 
      759        1:?   1:lncRNA       0.831 
      760        1:?   1:lncRNA       0.888 
      761        1:?   1:lncRNA       0.888 
      762        1:?   1:lncRNA       0.888 
      763        1:?   1:lncRNA       0.831 
      764        1:?   1:lncRNA       0.888 
      765        1:?   1:lncRNA       0.888 
      766        1:?   1:lncRNA       0.831 
      767        1:?   1:lncRNA       0.888 
      768        1:?   1:lncRNA       0.888 
      769        1:?   1:lncRNA       0.888 
      770        1:?   1:lncRNA       0.831 
      771        1:?   1:lncRNA       0.888 
      772        1:?   1:lncRNA       0.888 
      773        1:?   1:lncRNA       0.888 
      774        1:?   1:lncRNA       0.831 
      775        1:?   1:lncRNA       0.888 
      776        1:?   1:lncRNA       0.888 
      777        1:?   1:lncRNA       0.888 
      778        1:?   1:lncRNA       0.888 
      779        1:?   1:lncRNA       0.888 
      780        1:?   1:lncRNA       0.888 
      781        1:?   1:lncRNA       0.888 
      782        1:?   1:lncRNA       0.888 
      783        1:?   1:lncRNA       0.888 
      784        1:?   1:lncRNA       0.888 
      785        1:?   1:lncRNA       0.888 
      786        1:?   1:lncRNA       0.888 
      787        1:?   1:lncRNA       0.888 
      788        1:?   1:lncRNA       0.888 
      789        1:?   1:lncRNA       0.888 
      790        1:?   1:lncRNA       0.888 
      791        1:?   1:lncRNA       0.888 
      792        1:?   1:lncRNA       0.888 
      793        1:?   1:lncRNA       0.888 
      794        1:?   1:lncRNA       0.888 
      795        1:?   1:lncRNA       0.888 
      796        1:?   1:lncRNA       0.831 
      797        1:?   1:lncRNA       0.831 
      798        1:?   1:lncRNA       0.888 
      799        1:?   1:lncRNA       0.831 
      800        1:?   1:lncRNA       0.888 
      801        1:?   1:lncRNA       0.888 
      802        1:?   1:lncRNA       0.831 
      803        1:?   1:lncRNA       0.888 
      804        1:?   1:lncRNA       0.888 
      805        1:?   1:lncRNA       0.888 
      806        1:?   1:lncRNA       0.888 
      807        1:?   1:lncRNA       0.888 
      808        1:?   1:lncRNA       0.888 
      809        1:?   1:lncRNA       0.888 
      810        1:?   1:lncRNA       0.888 
      811        1:?   1:lncRNA       0.831 
      812        1:?   1:lncRNA       0.831 
      813        1:?   1:lncRNA       0.888 
      814        1:?   1:lncRNA       0.888 
      815        1:?   1:lncRNA       0.888 
      816        1:?   1:lncRNA       0.888 
      817        1:?   1:lncRNA       0.888 
      818        1:?   1:lncRNA       0.888 
      819        1:?   1:lncRNA       0.888 
      820        1:?   1:lncRNA       0.888 
      821        1:?   1:lncRNA       0.831 
      822        1:?   1:lncRNA       0.888 
      823        1:?   1:lncRNA       0.888 
      824        1:?   1:lncRNA       0.831 
      825        1:?   1:lncRNA       0.888 
      826        1:?   1:lncRNA       0.831 
      827        1:?   1:lncRNA       0.888 
      828        1:?   1:lncRNA       0.888 
      829        1:?   1:lncRNA       0.831 
      830        1:?   1:lncRNA       0.888 
      831        1:?   1:lncRNA       0.888 
      832        1:?   1:lncRNA       0.888 
      833        1:?   1:lncRNA       0.888 
      834        1:?   1:lncRNA       0.888 
      835        1:?   1:lncRNA       0.888 
      836        1:?   1:lncRNA       0.888 
      837        1:?   1:lncRNA       0.888 
      838        1:?   1:lncRNA       0.831 
      839        1:?   1:lncRNA       0.888 
      840        1:?   1:lncRNA       0.888 
      841        1:?   1:lncRNA       0.888 
      842        1:?   1:lncRNA       0.888 
      843        1:?   1:lncRNA       0.888 
      844        1:?   1:lncRNA       0.888 
      845        1:?   1:lncRNA       0.888 
      846        1:?   1:lncRNA       0.888 
      847        1:?   1:lncRNA       0.831 
      848        1:?   1:lncRNA       0.888 
      849        1:?   1:lncRNA       0.888 
      850        1:?   1:lncRNA       0.874 
      851        1:?   1:lncRNA       0.831 
      852        1:?   1:lncRNA       0.888 
      853        1:?   1:lncRNA       0.888 
      854        1:?   1:lncRNA       0.888 
      855        1:?   1:lncRNA       0.888 
      856        1:?   1:lncRNA       0.888 
      857        1:?   1:lncRNA       0.831 
      858        1:?   1:lncRNA       0.888 
      859        1:?   1:lncRNA       0.831 
      860        1:?   1:lncRNA       0.888 
      861        1:?   1:lncRNA       0.888 
      862        1:?   1:lncRNA       0.888 
      863        1:?   1:lncRNA       0.888 
      864        1:?   1:lncRNA       0.888 
      865        1:?   1:lncRNA       0.888 
      866        1:?   1:lncRNA       0.888 
      867        1:?   1:lncRNA       0.888 
      868        1:?   1:lncRNA       0.888 
      869        1:?   1:lncRNA       0.888 
      870        1:?   1:lncRNA       0.888 
      871        1:?   1:lncRNA       0.888 
      872        1:?   1:lncRNA       0.888 
      873        1:?   1:lncRNA       0.888 
      874        1:?   1:lncRNA       0.888 
      875        1:?   1:lncRNA       0.888 
      876        1:?   1:lncRNA       0.888 
      877        1:?   1:lncRNA       0.888 
      878        1:?   1:lncRNA       0.831 
      879        1:?   1:lncRNA       0.888 
      880        1:?   1:lncRNA       0.888 
      881        1:?   1:lncRNA       0.888 
      882        1:?   1:lncRNA       0.888 
      883        1:?   1:lncRNA       0.888 
      884        1:?   1:lncRNA       0.831 
      885        1:?   1:lncRNA       0.831 
      886        1:?   1:lncRNA       0.888 
      887        1:?   1:lncRNA       0.888 
      888        1:?   1:lncRNA       0.888 
      889        1:?   1:lncRNA       0.888 
      890        1:?   1:lncRNA       0.831 
      891        1:?   1:lncRNA       0.831 
      892        1:?   1:lncRNA       0.888 
      893        1:?   1:lncRNA       0.888 
      894        1:?   1:lncRNA       0.888 
      895        1:?   1:lncRNA       0.888 
      896        1:?   1:lncRNA       0.888 
      897        1:?   1:lncRNA       0.888 
      898        1:?   1:lncRNA       0.888 
      899        1:?   1:lncRNA       0.831 
      900        1:?   1:lncRNA       0.888 
      901        1:?   1:lncRNA       0.888 
      902        1:?   1:lncRNA       0.888 
      903        1:?   1:lncRNA       0.888 
      904        1:?   1:lncRNA       0.888 
      905        1:?   1:lncRNA       0.888 
      906        1:?   1:lncRNA       0.888 
      907        1:?   1:lncRNA       0.831 
      908        1:?   1:lncRNA       0.888 
      909        1:?   1:lncRNA       0.831 
      910        1:?   1:lncRNA       0.831 
      911        1:?   1:lncRNA       0.831 
      912        1:?   1:lncRNA       0.831 
      913        1:?   1:lncRNA       0.888 
      914        1:?   1:lncRNA       0.888 
      915        1:?   1:lncRNA       0.888 
      916        1:?   1:lncRNA       0.888 
      917        1:?   1:lncRNA       0.888 
      918        1:?   1:lncRNA       0.888 
      919        1:?   1:lncRNA       0.874 
      920        1:?   1:lncRNA       0.888 
      921        1:?   1:lncRNA       0.831 
      922        1:?   1:lncRNA       0.888 
      923        1:?   1:lncRNA       0.888 
      924        1:?   1:lncRNA       0.888 
      925        1:?   1:lncRNA       0.831 
      926        1:?   1:lncRNA       0.831 
      927        1:?   1:lncRNA       0.888 
      928        1:?   1:lncRNA       0.888 
      929        1:?   1:lncRNA       0.831 
      930        1:?   1:lncRNA       0.831 
      931        1:?   1:lncRNA       0.831 
      932        1:?   1:lncRNA       0.888 
      933        1:?   1:lncRNA       0.888 
      934        1:?   1:lncRNA       0.888 
      935        1:?   1:lncRNA       0.888 
      936        1:?   1:lncRNA       0.888 
      937        1:?   1:lncRNA       0.874 
      938        1:?   1:lncRNA       0.888 
      939        1:?   1:lncRNA       0.888 
      940        1:?   1:lncRNA       0.888 
      941        1:?   1:lncRNA       0.888 
      942        1:?   1:lncRNA       0.888 
      943        1:?   1:lncRNA       0.888 
      944        1:?   1:lncRNA       0.888 
      945        1:?   1:lncRNA       0.888 
      946        1:?   1:lncRNA       0.831 
      947        1:?   1:lncRNA       0.888 
      948        1:?   1:lncRNA       0.888 
      949        1:?   1:lncRNA       0.888 
      950        1:?   1:lncRNA       0.888 
      951        1:?   1:lncRNA       0.888 
      952        1:?   1:lncRNA       0.888 
      953        1:?   1:lncRNA       0.888 
      954        1:?   1:lncRNA       0.888 
      955        1:?   1:lncRNA       0.831 
      956        1:?   1:lncRNA       0.888 
      957        1:?   1:lncRNA       0.888 
      958        1:?   1:lncRNA       0.831 
      959        1:?   1:lncRNA       0.831 
      960        1:?   1:lncRNA       0.888 
      961        1:?   1:lncRNA       0.888 
      962        1:?   1:lncRNA       0.888 
      963        1:?   1:lncRNA       0.888 
      964        1:?   1:lncRNA       0.831 
      965        1:?   1:lncRNA       0.888 
      966        1:?   1:lncRNA       0.888 
      967        1:?   1:lncRNA       0.888 
      968        1:?   1:lncRNA       0.888 
      969        1:?   1:lncRNA       0.831 
      970        1:?   1:lncRNA       0.831 
      971        1:?   1:lncRNA       0.831 
      972        1:?   1:lncRNA       0.888 
      973        1:?   1:lncRNA       0.888 
      974        1:?   1:lncRNA       0.888 
      975        1:?   1:lncRNA       0.888 
      976        1:?   1:lncRNA       0.888 
      977        1:?   1:lncRNA       0.888 
      978        1:?   1:lncRNA       0.888 
      979        1:?   1:lncRNA       0.874 
      980        1:?   1:lncRNA       0.888 
      981        1:?   1:lncRNA       0.888 
      982        1:?   1:lncRNA       0.831 
      983        1:?   1:lncRNA       0.831 
      984        1:?   1:lncRNA       0.831 
      985        1:?   1:lncRNA       0.888 
      986        1:?   1:lncRNA       0.831 
      987        1:?   1:lncRNA       0.831 
      988        1:?   1:lncRNA       0.888 
      989        1:?   1:lncRNA       0.888 
      990        1:?   1:lncRNA       0.888 
      991        1:?   1:lncRNA       0.888 
      992        1:?   1:lncRNA       0.831 
      993        1:?   1:lncRNA       0.888 
      994        1:?   1:lncRNA       0.888 
      995        1:?   1:lncRNA       0.831 
      996        1:?   1:lncRNA       0.831 
      997        1:?   1:lncRNA       0.831 
      998        1:?   1:lncRNA       0.888 
      999        1:?   1:lncRNA       0.888 
     1000        1:?   1:lncRNA       0.888 
     1001        1:?   1:lncRNA       0.888 
     1002        1:?   1:lncRNA       0.888 
     1003        1:?   1:lncRNA       0.888 
     1004        1:?   1:lncRNA       0.888 
     1005        1:?   1:lncRNA       0.888 
     1006        1:?   1:lncRNA       0.888 
     1007        1:?   1:lncRNA       0.831 
     1008        1:?   1:lncRNA       0.888 
     1009        1:?   1:lncRNA       0.888 
     1010        1:?   1:lncRNA       0.831 
     1011        1:?   1:lncRNA       0.888 
     1012        1:?   1:lncRNA       0.888 
     1013        1:?   1:lncRNA       0.888 
     1014        1:?   1:lncRNA       0.888 
     1015        1:?   1:lncRNA       0.888 
     1016        1:?   1:lncRNA       0.874 
     1017        1:?   1:lncRNA       0.888 
     1018        1:?   1:lncRNA       0.831 
     1019        1:?   1:lncRNA       0.831 
     1020        1:?   1:lncRNA       0.888 
     1021        1:?   1:lncRNA       0.888 
     1022        1:?   1:lncRNA       0.831 
     1023        1:?   1:lncRNA       0.831 
     1024        1:?   1:lncRNA       0.888 
     1025        1:?   1:lncRNA       0.888 
     1026        1:?   1:lncRNA       0.888 
     1027        1:?   1:lncRNA       0.831 
     1028        1:?   1:lncRNA       0.888 
     1029        1:?   1:lncRNA       0.831 
     1030        1:?   1:lncRNA       0.888 
     1031        1:?   1:lncRNA       0.888 
     1032        1:?   1:lncRNA       0.888 
     1033        1:?   1:lncRNA       0.888 
     1034        1:?   1:lncRNA       0.888 
     1035        1:?   1:lncRNA       0.888 
     1036        1:?   1:lncRNA       0.888 
     1037        1:?   1:lncRNA       0.888 
     1038        1:?   1:lncRNA       0.888 
     1039        1:?   1:lncRNA       0.888 
     1040        1:?   1:lncRNA       0.831 
     1041        1:?   1:lncRNA       0.888 
     1042        1:?   1:lncRNA       0.888 
     1043        1:?   1:lncRNA       0.888 
     1044        1:?   1:lncRNA       0.888 
     1045        1:?   1:lncRNA       0.888 
     1046        1:?   1:lncRNA       0.888 
     1047        1:?   1:lncRNA       0.888 
     1048        1:?   1:lncRNA       0.888 
     1049        1:?   1:lncRNA       0.888 
     1050        1:?   1:lncRNA       0.888 
     1051        1:?   1:lncRNA       0.831 
     1052        1:?   1:lncRNA       0.888 
     1053        1:?   1:lncRNA       0.831 
     1054        1:?   1:lncRNA       0.888 
     1055        1:?   1:lncRNA       0.888 
     1056        1:?   1:lncRNA       0.888 
     1057        1:?   1:lncRNA       0.888 
     1058        1:?   1:lncRNA       0.888 
     1059        1:?   1:lncRNA       0.888 
     1060        1:?   1:lncRNA       0.888 
     1061        1:?   1:lncRNA       0.888 
     1062        1:?   1:lncRNA       0.888 
     1063        1:?   1:lncRNA       0.888 
     1064        1:?   1:lncRNA       0.888 
     1065        1:?   1:lncRNA       0.888 
     1066        1:?   1:lncRNA       0.888 
     1067        1:?   1:lncRNA       0.888 
     1068        1:?   1:lncRNA       0.888 
     1069        1:?   1:lncRNA       0.888 
     1070        1:?   1:lncRNA       0.888 
     1071        1:?   1:lncRNA       0.888 
     1072        1:?   1:lncRNA       0.888 
     1073        1:?   1:lncRNA       0.888 
     1074        1:?   1:lncRNA       0.831 
     1075        1:?   1:lncRNA       0.888 
     1076        1:?   1:lncRNA       0.888 
     1077        1:?   1:lncRNA       0.831 
     1078        1:?   1:lncRNA       0.888 
     1079        1:?   1:lncRNA       0.831 
     1080        1:?   1:lncRNA       0.831 
     1081        1:?   1:lncRNA       0.888 
     1082        1:?   1:lncRNA       0.888 
     1083        1:?   1:lncRNA       0.888 
     1084        1:?   1:lncRNA       0.888 
     1085        1:?   1:lncRNA       0.888 
     1086        1:?   1:lncRNA       0.888 
     1087        1:?   1:lncRNA       0.888 
     1088        1:?   1:lncRNA       0.888 
     1089        1:?   1:lncRNA       0.888 
     1090        1:?   1:lncRNA       0.888 
     1091        1:?   1:lncRNA       0.888 
     1092        1:?   1:lncRNA       0.831 
     1093        1:?   1:lncRNA       0.888 
     1094        1:?   1:lncRNA       0.888 
     1095        1:?   1:lncRNA       0.888 
     1096        1:?   1:lncRNA       0.831 
     1097        1:?   1:lncRNA       0.888 
     1098        1:?   1:lncRNA       0.888 
     1099        1:?   1:lncRNA       0.831 
     1100        1:?   1:lncRNA       0.831 
     1101        1:?   1:lncRNA       0.888 
     1102        1:?   1:lncRNA       0.888 
     1103        1:?   1:lncRNA       0.888 
     1104        1:?   1:lncRNA       0.888 
     1105        1:?   1:lncRNA       0.888 
     1106        1:?   1:lncRNA       0.888 
     1107        1:?   1:lncRNA       0.831 
     1108        1:?   1:lncRNA       0.888 
     1109        1:?   1:lncRNA       0.888 
     1110        1:?   1:lncRNA       0.888 
     1111        1:?   1:lncRNA       0.888 
     1112        1:?   1:lncRNA       0.888 
     1113        1:?   1:lncRNA       0.831 
     1114        1:?   1:lncRNA       0.888 
     1115        1:?   1:lncRNA       0.888 
     1116        1:?   1:lncRNA       0.831 
     1117        1:?   1:lncRNA       0.888 
     1118        1:?   1:lncRNA       0.888 
     1119        1:?   1:lncRNA       0.888 
     1120        1:?   1:lncRNA       0.888 
     1121        1:?   1:lncRNA       0.888 
     1122        1:?   1:lncRNA       0.888 
     1123        1:?   1:lncRNA       0.888 
     1124        1:?   1:lncRNA       0.888 
     1125        1:?   1:lncRNA       0.888 
     1126        1:?   1:lncRNA       0.888 
     1127        1:?   1:lncRNA       0.888 
     1128        1:?   1:lncRNA       0.888 
     1129        1:?   1:lncRNA       0.888 
     1130        1:?   1:lncRNA       0.888 
     1131        1:?   1:lncRNA       0.888 
     1132        1:?   1:lncRNA       0.831 
     1133        1:?   1:lncRNA       0.831 
     1134        1:?   1:lncRNA       0.831 
     1135        1:?   1:lncRNA       0.831 
     1136        1:?   1:lncRNA       0.888 
     1137        1:?   1:lncRNA       0.888 
     1138        1:?   1:lncRNA       0.888 
     1139        1:?   1:lncRNA       0.888 
     1140        1:?   1:lncRNA       0.831 
     1141        1:?   1:lncRNA       0.831 
     1142        1:?   1:lncRNA       0.888 
     1143        1:?   1:lncRNA       0.831 
     1144        1:?   1:lncRNA       0.888 
     1145        1:?   1:lncRNA       0.888 
     1146        1:?   1:lncRNA       0.831 
     1147        1:?   1:lncRNA       0.888 
     1148        1:?   1:lncRNA       0.888 
     1149        1:?   1:lncRNA       0.888 
     1150        1:?   1:lncRNA       0.888 
     1151        1:?   1:lncRNA       0.888 
     1152        1:?   1:lncRNA       0.874 
     1153        1:?   1:lncRNA       0.831 
     1154        1:?   1:lncRNA       0.831 
     1155        1:?   1:lncRNA       0.831 
     1156        1:?   1:lncRNA       0.888 
     1157        1:?   1:lncRNA       0.888 
     1158        1:?   1:lncRNA       0.888 
     1159        1:?   1:lncRNA       0.888 
     1160        1:?   1:lncRNA       0.888 
     1161        1:?   1:lncRNA       0.888 
     1162        1:?   1:lncRNA       0.888 
     1163        1:?   1:lncRNA       0.831 
     1164        1:?   1:lncRNA       0.888 
     1165        1:?   1:lncRNA       0.888 
     1166        1:?   1:lncRNA       0.888 
     1167        1:?   1:lncRNA       0.888 
     1168        1:?   1:lncRNA       0.888 
     1169        1:?   1:lncRNA       0.831 
     1170        1:?   1:lncRNA       0.888 
     1171        1:?   1:lncRNA       0.831 
     1172        1:?   1:lncRNA       0.888 
     1173        1:?   1:lncRNA       0.888 
     1174        1:?   1:lncRNA       0.831 
     1175        1:?   1:lncRNA       0.888 
     1176        1:?   1:lncRNA       0.888 
     1177        1:?   1:lncRNA       0.888 
     1178        1:?   1:lncRNA       0.888 
     1179        1:?   1:lncRNA       0.888 
     1180        1:?   1:lncRNA       0.888 
     1181        1:?   1:lncRNA       0.888 
     1182        1:?   1:lncRNA       0.888 
     1183        1:?   1:lncRNA       0.831 
     1184        1:?   1:lncRNA       0.888 
     1185        1:?   1:lncRNA       0.888 
     1186        1:?   1:lncRNA       0.888 
     1187        1:?   1:lncRNA       0.888 
     1188        1:?   1:lncRNA       0.888 
     1189        1:?   1:lncRNA       0.888 
     1190        1:?   1:lncRNA       0.888 
     1191        1:?   1:lncRNA       0.888 
     1192        1:?   1:lncRNA       0.888 
     1193        1:?   1:lncRNA       0.888 
     1194        1:?   1:lncRNA       0.888 
     1195        1:?   1:lncRNA       0.888 
     1196        1:?   1:lncRNA       0.888 
     1197        1:?   1:lncRNA       0.888 
     1198        1:?   1:lncRNA       0.888 
     1199        1:?   1:lncRNA       0.831 
     1200        1:?   1:lncRNA       0.888 
     1201        1:?   1:lncRNA       0.888 
     1202        1:?   1:lncRNA       0.831 
     1203        1:?   1:lncRNA       0.888 
     1204        1:?   1:lncRNA       0.888 
     1205        1:?   1:lncRNA       0.888 
     1206        1:?   1:lncRNA       0.888 
     1207        1:?   1:lncRNA       0.831 
     1208        1:?   1:lncRNA       0.888 
     1209        1:?   1:lncRNA       0.831 
     1210        1:?   1:lncRNA       0.888 
     1211        1:?   1:lncRNA       0.888 
     1212        1:?   1:lncRNA       0.888 
     1213        1:?   1:lncRNA       0.888 
     1214        1:?   1:lncRNA       0.888 
     1215        1:?   1:lncRNA       0.888 
     1216        1:?   1:lncRNA       0.888 
     1217        1:?   1:lncRNA       0.888 
     1218        1:?   1:lncRNA       0.888 
     1219        1:?   1:lncRNA       0.888 
     1220        1:?   1:lncRNA       0.888 
     1221        1:?   1:lncRNA       0.888 
     1222        1:?   1:lncRNA       0.888 
     1223        1:?   1:lncRNA       0.888 
     1224        1:?   1:lncRNA       0.888 
     1225        1:?   1:lncRNA       0.888 
     1226        1:?   1:lncRNA       0.888 
     1227        1:?   1:lncRNA       0.888 
     1228        1:?   1:lncRNA       0.831 
     1229        1:?   1:lncRNA       0.888 
     1230        1:?   1:lncRNA       0.888 
     1231        1:?   1:lncRNA       0.888 
     1232        1:?   1:lncRNA       0.831 
     1233        1:?   1:lncRNA       0.888 
     1234        1:?   1:lncRNA       0.874 
     1235        1:?   1:lncRNA       0.888 
     1236        1:?   1:lncRNA       0.888 
     1237        1:?   1:lncRNA       0.888 
     1238        1:?   1:lncRNA       0.888 
     1239        1:?   1:lncRNA       0.888 
     1240        1:?   1:lncRNA       0.888 
     1241        1:?   1:lncRNA       0.888 
     1242        1:?   1:lncRNA       0.888 
     1243        1:?   1:lncRNA       0.888 
     1244        1:?   1:lncRNA       0.888 
     1245        1:?   1:lncRNA       0.888 
     1246        1:?   1:lncRNA       0.888 
     1247        1:?   1:lncRNA       0.888 
     1248        1:?   1:lncRNA       0.831 
     1249        1:?   1:lncRNA       0.888 
     1250        1:?   1:lncRNA       0.888 
     1251        1:?   1:lncRNA       0.888 
     1252        1:?   1:lncRNA       0.888 
     1253        1:?   1:lncRNA       0.888 
     1254        1:?   1:lncRNA       0.888 
     1255        1:?   1:lncRNA       0.888 
     1256        1:?   1:lncRNA       0.888 
     1257        1:?   1:lncRNA       0.888 
     1258        1:?   1:lncRNA       0.888 
     1259        1:?   1:lncRNA       0.888 
     1260        1:?   1:lncRNA       0.888 
     1261        1:?   1:lncRNA       0.888 
     1262        1:?   1:lncRNA       0.888 
     1263        1:?   1:lncRNA       0.888 
     1264        1:?   1:lncRNA       0.888 
     1265        1:?   1:lncRNA       0.831 
     1266        1:?   1:lncRNA       0.888 
     1267        1:?   1:lncRNA       0.888 
     1268        1:?   1:lncRNA       0.888 
     1269        1:?   1:lncRNA       0.888 
     1270        1:?   1:lncRNA       0.888 
     1271        1:?   1:lncRNA       0.888 
     1272        1:?   1:lncRNA       0.888 
     1273        1:?   1:lncRNA       0.831 
     1274        1:?   1:lncRNA       0.888 
     1275        1:?   1:lncRNA       0.831 
     1276        1:?   1:lncRNA       0.888 
     1277        1:?   1:lncRNA       0.888 
     1278        1:?   1:lncRNA       0.888 
     1279        1:?   1:lncRNA       0.831 
     1280        1:?   1:lncRNA       0.888 
     1281        1:?   1:lncRNA       0.888 
     1282        1:?   1:lncRNA       0.831 
     1283        1:?   1:lncRNA       0.831 
     1284        1:?   1:lncRNA       0.888 
     1285        1:?   1:lncRNA       0.888 
     1286        1:?   1:lncRNA       0.888 
     1287        1:?   1:lncRNA       0.888 
     1288        1:?   1:lncRNA       0.888 
     1289        1:?   1:lncRNA       0.888 
     1290        1:?   1:lncRNA       0.888 
     1291        1:?   1:lncRNA       0.874 
     1292        1:?   1:lncRNA       0.888 
     1293        1:?   1:lncRNA       0.888 
     1294        1:?   1:lncRNA       0.888 
     1295        1:?   1:lncRNA       0.888 
     1296        1:?   1:lncRNA       0.831 
     1297        1:?   1:lncRNA       0.888 
     1298        1:?   1:lncRNA       0.888 
     1299        1:?   1:lncRNA       0.888 
     1300        1:?   1:lncRNA       0.888 
     1301        1:?   1:lncRNA       0.888 
     1302        1:?   1:lncRNA       0.888 
     1303        1:?   1:lncRNA       0.888 
     1304        1:?   1:lncRNA       0.888 
     1305        1:?   1:lncRNA       0.888 
     1306        1:?   1:lncRNA       0.888 
     1307        1:?   1:lncRNA       0.888 
     1308        1:?   1:lncRNA       0.888 
     1309        1:?   1:lncRNA       0.888 
     1310        1:?   1:lncRNA       0.888 
     1311        1:?   1:lncRNA       0.888 
     1312        1:?   1:lncRNA       0.888 
     1313        1:?   1:lncRNA       0.831 
     1314        1:?   1:lncRNA       0.888 
     1315        1:?   1:lncRNA       0.888 
     1316        1:?   1:lncRNA       0.888 
     1317        1:?   1:lncRNA       0.888 
     1318        1:?   1:lncRNA       0.888 
     1319        1:?   1:lncRNA       0.888 
     1320        1:?   1:lncRNA       0.888 
     1321        1:?   1:lncRNA       0.888 
     1322        1:?   1:lncRNA       0.831 
     1323        1:?   1:lncRNA       0.831 
     1324        1:?   1:lncRNA       0.888 
     1325        1:?   1:lncRNA       0.831 
     1326        1:?   1:lncRNA       0.888 
     1327        1:?   1:lncRNA       0.888 
     1328        1:?   1:lncRNA       0.888 
     1329        1:?   1:lncRNA       0.888 
     1330        1:?   1:lncRNA       0.888 
     1331        1:?   1:lncRNA       0.888 
     1332        1:?   1:lncRNA       0.888 
     1333        1:?   1:lncRNA       0.888 
     1334        1:?   1:lncRNA       0.888 
     1335        1:?   1:lncRNA       0.888 
     1336        1:?   1:lncRNA       0.888 
     1337        1:?   1:lncRNA       0.888 
     1338        1:?   1:lncRNA       0.831 
     1339        1:?   1:lncRNA       0.888 
     1340        1:?   1:lncRNA       0.888 
     1341        1:?   1:lncRNA       0.888 
     1342        1:?   1:lncRNA       0.888 
     1343        1:?   1:lncRNA       0.888 
     1344        1:?   1:lncRNA       0.831 
     1345        1:?   1:lncRNA       0.888 
     1346        1:?   1:lncRNA       0.888 
     1347        1:?   1:lncRNA       0.888 
     1348        1:?   1:lncRNA       0.888 
     1349        1:?   1:lncRNA       0.888 
     1350        1:?   1:lncRNA       0.888 
     1351        1:?   1:lncRNA       0.888 
     1352        1:?   1:lncRNA       0.831 
     1353        1:?   1:lncRNA       0.888 
     1354        1:?   1:lncRNA       0.831 
     1355        1:?   1:lncRNA       0.888 
     1356        1:?   1:lncRNA       0.888 
     1357        1:?   1:lncRNA       0.888 
     1358        1:?   1:lncRNA       0.888 
     1359        1:?   1:lncRNA       0.888 
     1360        1:?   1:lncRNA       0.831 
     1361        1:?   1:lncRNA       0.831 
     1362        1:?   1:lncRNA       0.888 
     1363        1:?   1:lncRNA       0.831 
     1364        1:?   1:lncRNA       0.874 
     1365        1:?   1:lncRNA       0.874 
     1366        1:?   1:lncRNA       0.888 
     1367        1:?   1:lncRNA       0.831 
     1368        1:?   1:lncRNA       0.831 
     1369        1:?   1:lncRNA       0.888 
     1370        1:?   1:lncRNA       0.831 
     1371        1:?   1:lncRNA       0.888 
     1372        1:?   1:lncRNA       0.888 
     1373        1:?   1:lncRNA       0.831 
     1374        1:?   1:lncRNA       0.888 
     1375        1:?   1:lncRNA       0.888 
     1376        1:?   1:lncRNA       0.831 
     1377        1:?   1:lncRNA       0.888 
     1378        1:?   1:lncRNA       0.888 
     1379        1:?   1:lncRNA       0.888 
     1380        1:?   1:lncRNA       0.888 
     1381        1:?   1:lncRNA       0.888 
     1382        1:?   1:lncRNA       0.888 
     1383        1:?   1:lncRNA       0.888 
     1384        1:?   1:lncRNA       0.888 
     1385        1:?   1:lncRNA       0.888 
     1386        1:?   1:lncRNA       0.888 
     1387        1:?   1:lncRNA       0.831 
     1388        1:?   1:lncRNA       0.888 
     1389        1:?   1:lncRNA       0.888 
     1390        1:?   1:lncRNA       0.888 
     1391        1:?   1:lncRNA       0.888 
     1392        1:?   1:lncRNA       0.888 
     1393        1:?   1:lncRNA       0.888 
     1394        1:?   1:lncRNA       0.888 
     1395        1:?   1:lncRNA       0.888 
     1396        1:?   1:lncRNA       0.888 
     1397        1:?   1:lncRNA       0.888 
     1398        1:?   1:lncRNA       0.888 
     1399        1:?   1:lncRNA       0.888 
     1400        1:?   1:lncRNA       0.888 
     1401        1:?   1:lncRNA       0.888 
     1402        1:?   1:lncRNA       0.831 
     1403        1:?   1:lncRNA       0.888 
     1404        1:?   1:lncRNA       0.888 
     1405        1:?   1:lncRNA       0.888 
     1406        1:?   1:lncRNA       0.831 
     1407        1:?   1:lncRNA       0.831 
     1408        1:?   1:lncRNA       0.888 
     1409        1:?   1:lncRNA       0.888 
     1410        1:?   1:lncRNA       0.888 
     1411        1:?   1:lncRNA       0.888 
     1412        1:?   1:lncRNA       0.888 
     1413        1:?   1:lncRNA       0.831 
     1414        1:?   1:lncRNA       0.888 
     1415        1:?   1:lncRNA       0.888 
     1416        1:?   1:lncRNA       0.831 
     1417        1:?   1:lncRNA       0.888 
     1418        1:?   1:lncRNA       0.831 
     1419        1:?   1:lncRNA       0.888 
     1420        1:?   1:lncRNA       0.888 
     1421        1:?   1:lncRNA       0.888 
     1422        1:?   1:lncRNA       0.888 
     1423        1:?   1:lncRNA       0.831 
     1424        1:?   1:lncRNA       0.888 
     1425        1:?   1:lncRNA       0.888 
     1426        1:?   1:lncRNA       0.888 
     1427        1:?   1:lncRNA       0.888 
     1428        1:?   1:lncRNA       0.888 
     1429        1:?   1:lncRNA       0.888 
     1430        1:?   1:lncRNA       0.888 
     1431        1:?   1:lncRNA       0.888 
     1432        1:?   1:lncRNA       0.888 
     1433        1:?   1:lncRNA       0.888 
     1434        1:?   1:lncRNA       0.831 
     1435        1:?   1:lncRNA       0.831 
     1436        1:?   1:lncRNA       0.888 
     1437        1:?   1:lncRNA       0.888 
     1438        1:?   1:lncRNA       0.888 
     1439        1:?   1:lncRNA       0.888 
     1440        1:?   1:lncRNA       0.888 
     1441        1:?   1:lncRNA       0.888 
     1442        1:?   1:lncRNA       0.888 
     1443        1:?   1:lncRNA       0.888 
     1444        1:?   1:lncRNA       0.888 
     1445        1:?   1:lncRNA       0.831 
     1446        1:?   1:lncRNA       0.831 
     1447        1:?   1:lncRNA       0.831 
     1448        1:?   1:lncRNA       0.888 
     1449        1:?   1:lncRNA       0.888 
     1450        1:?   1:lncRNA       0.831 
     1451        1:?   1:lncRNA       0.888 
     1452        1:?   1:lncRNA       0.888 
     1453        1:?   1:lncRNA       0.888 
     1454        1:?   1:lncRNA       0.888 
     1455        1:?   1:lncRNA       0.888 
     1456        1:?   1:lncRNA       0.888 
     1457        1:?   1:lncRNA       0.874 
     1458        1:?   1:lncRNA       0.888 
     1459        1:?   1:lncRNA       0.888 
     1460        1:?   1:lncRNA       0.888 
     1461        1:?   1:lncRNA       0.888 
     1462        1:?   1:lncRNA       0.831 
     1463        1:?   1:lncRNA       0.888 
     1464        1:?   1:lncRNA       0.888 
     1465        1:?   1:lncRNA       0.888 
     1466        1:?   1:lncRNA       0.831 
     1467        1:?   1:lncRNA       0.888 
     1468        1:?   1:lncRNA       0.888 
     1469        1:?   1:lncRNA       0.888 
     1470        1:?   1:lncRNA       0.888 
     1471        1:?   1:lncRNA       0.888 
     1472        1:?   1:lncRNA       0.888 
     1473        1:?   1:lncRNA       0.888 
     1474        1:?   1:lncRNA       0.888 
     1475        1:?   1:lncRNA       0.888 
     1476        1:?   1:lncRNA       0.831 
     1477        1:?   1:lncRNA       0.888 
     1478        1:?   1:lncRNA       0.888 
     1479        1:?   1:lncRNA       0.888 
     1480        1:?   1:lncRNA       0.888 
     1481        1:?   1:lncRNA       0.888 
     1482        1:?   1:lncRNA       0.888 
     1483        1:?   1:lncRNA       0.888 
     1484        1:?   1:lncRNA       0.888 
     1485        1:?   1:lncRNA       0.888 
     1486        1:?   1:lncRNA       0.831 
     1487        1:?   1:lncRNA       0.888 
     1488        1:?   1:lncRNA       0.888 
     1489        1:?   1:lncRNA       0.888 
     1490        1:?   1:lncRNA       0.831 
     1491        1:?   1:lncRNA       0.888 
     1492        1:?   1:lncRNA       0.831 
     1493        1:?   1:lncRNA       0.888 
     1494        1:?   1:lncRNA       0.888 
     1495        1:?   1:lncRNA       0.888 
     1496        1:?   1:lncRNA       0.888 
     1497        1:?   1:lncRNA       0.888 
     1498        1:?   1:lncRNA       0.888 
     1499        1:?   1:lncRNA       0.831 
     1500        1:?   1:lncRNA       0.888 
     1501        1:?   1:lncRNA       0.888 
     1502        1:?   1:lncRNA       0.888 
     1503        1:?   1:lncRNA       0.831 
     1504        1:?   1:lncRNA       0.831 
     1505        1:?   1:lncRNA       0.888 
     1506        1:?   1:lncRNA       0.888 
     1507        1:?   1:lncRNA       0.888 
     1508        1:?   1:lncRNA       0.888 
     1509        1:?   1:lncRNA       0.831 
     1510        1:?   1:lncRNA       0.888 
     1511        1:?   1:lncRNA       0.888 
     1512        1:?   1:lncRNA       0.888 
     1513        1:?   1:lncRNA       0.888 
     1514        1:?   1:lncRNA       0.888 
     1515        1:?   1:lncRNA       0.888 
     1516        1:?   1:lncRNA       0.888 
     1517        1:?   1:lncRNA       0.888 
     1518        1:?   1:lncRNA       0.888 
     1519        1:?   1:lncRNA       0.888 
     1520        1:?   1:lncRNA       0.888 
     1521        1:?   1:lncRNA       0.888 
     1522        1:?   1:lncRNA       0.888 
     1523        1:?   1:lncRNA       0.831 
     1524        1:?   1:lncRNA       0.888 
     1525        1:?   1:lncRNA       0.888 
     1526        1:?   1:lncRNA       0.888 
     1527        1:?   1:lncRNA       0.888 
     1528        1:?   1:lncRNA       0.831 
     1529        1:?   1:lncRNA       0.874 
     1530        1:?   1:lncRNA       0.888 
     1531        1:?   1:lncRNA       0.831 
     1532        1:?   1:lncRNA       0.831 
     1533        1:?   1:lncRNA       0.888 
     1534        1:?   1:lncRNA       0.888 
     1535        1:?   1:lncRNA       0.888 
     1536        1:?   1:lncRNA       0.888 
     1537        1:?   1:lncRNA       0.888 
     1538        1:?   1:lncRNA       0.888 
     1539        1:?   1:lncRNA       0.831 
     1540        1:?   1:lncRNA       0.831 
     1541        1:?   1:lncRNA       0.831 
     1542        1:?   1:lncRNA       0.888 
     1543        1:?   1:lncRNA       0.888 
     1544        1:?   1:lncRNA       0.831 
     1545        1:?   1:lncRNA       0.888 
     1546        1:?   1:lncRNA       0.888 
     1547        1:?   1:lncRNA       0.888 
     1548        1:?   1:lncRNA       0.831 
     1549        1:?   1:lncRNA       0.888 
     1550        1:?   1:lncRNA       0.888 
     1551        1:?   1:lncRNA       0.888 
     1552        1:?   1:lncRNA       0.888 
     1553        1:?   1:lncRNA       0.874 
     1554        1:?   1:lncRNA       0.888 
     1555        1:?   1:lncRNA       0.888 
     1556        1:?   1:lncRNA       0.888 
     1557        1:?   1:lncRNA       0.888 
     1558        1:?   1:lncRNA       0.888 
     1559        1:?   1:lncRNA       0.831 
     1560        1:?   1:lncRNA       0.888 
     1561        1:?   1:lncRNA       0.888 
     1562        1:?   1:lncRNA       0.831 
     1563        1:?   1:lncRNA       0.831 
     1564        1:?   1:lncRNA       0.888 
     1565        1:?   1:lncRNA       0.888 
     1566        1:?   1:lncRNA       0.888 
     1567        1:?   1:lncRNA       0.888 
     1568        1:?   1:lncRNA       0.888 
     1569        1:?   1:lncRNA       0.888 
     1570        1:?   1:lncRNA       0.888 
     1571        1:?   1:lncRNA       0.831 
     1572        1:?   1:lncRNA       0.888 
     1573        1:?   1:lncRNA       0.888 
     1574        1:?   1:lncRNA       0.888 
     1575        1:?   1:lncRNA       0.831 
     1576        1:?   1:lncRNA       0.888 
     1577        1:?   1:lncRNA       0.888 
     1578        1:?   1:lncRNA       0.888 
     1579        1:?   1:lncRNA       0.888 
     1580        1:?   1:lncRNA       0.874 
     1581        1:?   1:lncRNA       0.888 
     1582        1:?   1:lncRNA       0.831 
     1583        1:?   1:lncRNA       0.888 
     1584        1:?   1:lncRNA       0.888 
     1585        1:?   1:lncRNA       0.831 
     1586        1:?   1:lncRNA       0.888 
     1587        1:?   1:lncRNA       0.888 
     1588        1:?   1:lncRNA       0.831 
     1589        1:?   1:lncRNA       0.831 
     1590        1:?   1:lncRNA       0.831 
     1591        1:?   1:lncRNA       0.888 
     1592        1:?   1:lncRNA       0.888 
     1593        1:?   1:lncRNA       0.888 
     1594        1:?   1:lncRNA       0.888 
     1595        1:?   1:lncRNA       0.888 
     1596        1:?   1:lncRNA       0.888 
     1597        1:?   1:lncRNA       0.888 
     1598        1:?   1:lncRNA       0.888 
     1599        1:?   1:lncRNA       0.888 
     1600        1:?   1:lncRNA       0.888 
     1601        1:?   1:lncRNA       0.888 
     1602        1:?   1:lncRNA       0.888 
     1603        1:?   1:lncRNA       0.888 
     1604        1:?   1:lncRNA       0.888 
     1605        1:?   1:lncRNA       0.888 
     1606        1:?   1:lncRNA       0.888 
     1607        1:?   1:lncRNA       0.888 
     1608        1:?   1:lncRNA       0.888 
     1609        1:?   1:lncRNA       0.888 
     1610        1:?   1:lncRNA       0.888 
     1611        1:?   1:lncRNA       0.888 
     1612        1:?   1:lncRNA       0.888 
     1613        1:?   1:lncRNA       0.888 
     1614        1:?   1:lncRNA       0.888 
     1615        1:?   1:lncRNA       0.888 
     1616        1:?   1:lncRNA       0.888 
     1617        1:?   1:lncRNA       0.888 
     1618        1:?   1:lncRNA       0.888 
     1619        1:?   1:lncRNA       0.888 
     1620        1:?   1:lncRNA       0.888 
     1621        1:?   1:lncRNA       0.888 
     1622        1:?   1:lncRNA       0.888 
     1623        1:?   1:lncRNA       0.888 
     1624        1:?   1:lncRNA       0.888 
     1625        1:?   1:lncRNA       0.888 
     1626        1:?   1:lncRNA       0.888 
     1627        1:?   1:lncRNA       0.831 
     1628        1:?   1:lncRNA       0.888 
     1629        1:?   1:lncRNA       0.888 
     1630        1:?   1:lncRNA       0.888 
     1631        1:?   1:lncRNA       0.888 
     1632        1:?   1:lncRNA       0.888 
     1633        1:?   1:lncRNA       0.888 
     1634        1:?   1:lncRNA       0.888 
     1635        1:?   1:lncRNA       0.888 
     1636        1:?   1:lncRNA       0.888 
     1637        1:?   1:lncRNA       0.888 
     1638        1:?   1:lncRNA       0.888 
     1639        1:?   1:lncRNA       0.888 
     1640        1:?   1:lncRNA       0.888 
     1641        1:?   1:lncRNA       0.888 
     1642        1:?   1:lncRNA       0.888 
     1643        1:?   1:lncRNA       0.888 
     1644        1:?   1:lncRNA       0.831 
     1645        1:?   1:lncRNA       0.831 
     1646        1:?   1:lncRNA       0.888 
     1647        1:?   1:lncRNA       0.888 
     1648        1:?   1:lncRNA       0.888 
     1649        1:?   1:lncRNA       0.888 
     1650        1:?   1:lncRNA       0.888 
     1651        1:?   1:lncRNA       0.888 
     1652        1:?   1:lncRNA       0.888 
     1653        1:?   1:lncRNA       0.888 
     1654        1:?   1:lncRNA       0.888 
     1655        1:?   1:lncRNA       0.888 
     1656        1:?   1:lncRNA       0.888 
     1657        1:?   1:lncRNA       0.831 
     1658        1:?   1:lncRNA       0.888 
     1659        1:?   1:lncRNA       0.888 
     1660        1:?   1:lncRNA       0.888 
     1661        1:?   1:lncRNA       0.888 
     1662        1:?   1:lncRNA       0.888 
     1663        1:?   1:lncRNA       0.888 
     1664        1:?   1:lncRNA       0.952 
     1665        1:?   1:lncRNA       0.888 
     1666        1:?   1:lncRNA       0.888 
     1667        1:?   1:lncRNA       0.888 
     1668        1:?   1:lncRNA       0.888 
     1669        1:?   1:lncRNA       0.831 
     1670        1:?   1:lncRNA       0.888 
     1671        1:?   1:lncRNA       0.831 
     1672        1:?   1:lncRNA       0.888 
     1673        1:?   1:lncRNA       0.888 
     1674        1:?   1:lncRNA       0.888 
     1675        1:?   1:lncRNA       0.888 
     1676        1:?   1:lncRNA       0.888 
     1677        1:?   1:lncRNA       0.888 
     1678        1:?   1:lncRNA       0.888 
     1679        1:?   1:lncRNA       0.888 
     1680        1:?   1:lncRNA       0.888 
     1681        1:?   1:lncRNA       0.888 
     1682        1:?   1:lncRNA       0.888 
     1683        1:?   1:lncRNA       0.888 
     1684        1:?   1:lncRNA       0.888 
     1685        1:?   1:lncRNA       0.888 
     1686        1:?   1:lncRNA       0.888 
     1687        1:?   1:lncRNA       0.888 
     1688        1:?   1:lncRNA       0.888 
     1689        1:?   1:lncRNA       0.831 
     1690        1:?   1:lncRNA       0.888 
     1691        1:?   1:lncRNA       0.888 
     1692        1:?   1:lncRNA       0.888 
     1693        1:?   1:lncRNA       0.888 
     1694        1:?   1:lncRNA       0.831 
     1695        1:?   1:lncRNA       0.831 
     1696        1:?   1:lncRNA       0.831 
     1697        1:?   1:lncRNA       0.888 
     1698        1:?   1:lncRNA       0.831 
     1699        1:?   1:lncRNA       0.888 
     1700        1:?   1:lncRNA       0.888 
     1701        1:?   1:lncRNA       0.888 
     1702        1:?   1:lncRNA       0.888 
     1703        1:?   1:lncRNA       0.888 
     1704        1:?   1:lncRNA       0.888 
     1705        1:?   1:lncRNA       0.888 
     1706        1:?   1:lncRNA       0.831 
     1707        1:?   1:lncRNA       0.888 
     1708        1:?   1:lncRNA       0.888 
     1709        1:?   1:lncRNA       0.888 
     1710        1:?   1:lncRNA       0.831 
     1711        1:?   1:lncRNA       0.888 
     1712        1:?   1:lncRNA       0.888 
     1713        1:?   1:lncRNA       0.888 
     1714        1:?   1:lncRNA       0.888 
     1715        1:?   1:lncRNA       0.888 
     1716        1:?   1:lncRNA       0.888 
     1717        1:?   1:lncRNA       0.831 
     1718        1:?   1:lncRNA       0.888 
     1719        1:?   1:lncRNA       0.888 
     1720        1:?   1:lncRNA       0.888 
     1721        1:?   1:lncRNA       0.888 
     1722        1:?   1:lncRNA       0.831 
     1723        1:?   1:lncRNA       0.888 
     1724        1:?   1:lncRNA       0.831 
     1725        1:?   1:lncRNA       0.831 
     1726        1:?   1:lncRNA       0.888 
     1727        1:?   1:lncRNA       0.831 
     1728        1:?   1:lncRNA       0.874 
     1729        1:?   1:lncRNA       0.888 
     1730        1:?   1:lncRNA       0.888 
     1731        1:?   1:lncRNA       0.888 
     1732        1:?   1:lncRNA       0.888 
     1733        1:?   1:lncRNA       0.888 
     1734        1:?   1:lncRNA       0.888 
     1735        1:?   1:lncRNA       0.888 
     1736        1:?   1:lncRNA       0.888 
     1737        1:?   1:lncRNA       0.888 
     1738        1:?   1:lncRNA       0.888 
     1739        1:?   1:lncRNA       0.888 
     1740        1:?   1:lncRNA       0.888 
     1741        1:?   1:lncRNA       0.888 
     1742        1:?   1:lncRNA       0.888 
     1743        1:?   1:lncRNA       0.888 
     1744        1:?   1:lncRNA       0.888 
     1745        1:?   1:lncRNA       0.888 
     1746        1:?   1:lncRNA       0.888 
     1747        1:?   1:lncRNA       0.888 
     1748        1:?   1:lncRNA       0.888 
     1749        1:?   1:lncRNA       0.888 
     1750        1:?   1:lncRNA       0.888 
     1751        1:?   1:lncRNA       0.888 
     1752        1:?   1:lncRNA       0.888 
     1753        1:?   1:lncRNA       0.831 
     1754        1:?   1:lncRNA       0.831 
     1755        1:?   1:lncRNA       0.888 
     1756        1:?   1:lncRNA       0.888 
     1757        1:?   1:lncRNA       0.831 
     1758        1:?   1:lncRNA       0.888 
     1759        1:?   1:lncRNA       0.888 
     1760        1:?   1:lncRNA       0.888 
     1761        1:?   1:lncRNA       0.888 
     1762        1:?   1:lncRNA       0.888 
     1763        1:?   1:lncRNA       0.888 
     1764        1:?   1:lncRNA       0.831 
     1765        1:?   1:lncRNA       0.888 
     1766        1:?   1:lncRNA       0.888 
     1767        1:?   1:lncRNA       0.874 
     1768        1:?   1:lncRNA       0.888 
     1769        1:?   1:lncRNA       0.888 
     1770        1:?   1:lncRNA       0.888 
     1771        1:?   1:lncRNA       0.888 
     1772        1:?   1:lncRNA       0.888 
     1773        1:?   1:lncRNA       0.888 
     1774        1:?   1:lncRNA       0.831 
     1775        1:?   1:lncRNA       0.831 
     1776        1:?   1:lncRNA       0.888 
     1777        1:?   1:lncRNA       0.888 
     1778        1:?   1:lncRNA       0.888 
     1779        1:?   1:lncRNA       0.888 
     1780        1:?   1:lncRNA       0.874 
     1781        1:?   1:lncRNA       0.831 
     1782        1:?   1:lncRNA       0.888 
     1783        1:?   1:lncRNA       0.888 
     1784        1:?   1:lncRNA       0.888 
     1785        1:?   1:lncRNA       0.888 
     1786        1:?   1:lncRNA       0.831 
     1787        1:?   1:lncRNA       0.888 
     1788        1:?   1:lncRNA       0.888 
     1789        1:?   1:lncRNA       0.831 
     1790        1:?   1:lncRNA       0.888 
     1791        1:?   1:lncRNA       0.888 
     1792        1:?   1:lncRNA       0.888 
     1793        1:?   1:lncRNA       0.831 
     1794        1:?   1:lncRNA       0.888 
     1795        1:?   1:lncRNA       0.888 
     1796        1:?   1:lncRNA       0.888 
     1797        1:?   1:lncRNA       0.888 
     1798        1:?   1:lncRNA       0.888 
     1799        1:?   1:lncRNA       0.888 
     1800        1:?   1:lncRNA       0.888 
     1801        1:?   1:lncRNA       0.888 
     1802        1:?   1:lncRNA       0.888 
     1803        1:?   1:lncRNA       0.888 
     1804        1:?   1:lncRNA       0.888 
     1805        1:?   1:lncRNA       0.888 
     1806        1:?   1:lncRNA       0.888 
     1807        1:?   1:lncRNA       0.888 
     1808        1:?   1:lncRNA       0.888 
     1809        1:?   1:lncRNA       0.888 
     1810        1:?   1:lncRNA       0.888 
     1811        1:?   1:lncRNA       0.831 
     1812        1:?   1:lncRNA       0.888 
     1813        1:?   1:lncRNA       0.888 
     1814        1:?   1:lncRNA       0.888 
     1815        1:?   1:lncRNA       0.888 
     1816        1:?   1:lncRNA       0.888 
     1817        1:?   1:lncRNA       0.888 
     1818        1:?   1:lncRNA       0.831 
     1819        1:?   1:lncRNA       0.831 
     1820        1:?   1:lncRNA       0.888 
     1821        1:?   1:lncRNA       0.888 
     1822        1:?   1:lncRNA       0.888 
     1823        1:?   1:lncRNA       0.888 
     1824        1:?   1:lncRNA       0.888 
     1825        1:?   1:lncRNA       0.888 
     1826        1:?   1:lncRNA       0.888 
     1827        1:?   1:lncRNA       0.888 
     1828        1:?   1:lncRNA       0.888 
     1829        1:?   1:lncRNA       0.888 
     1830        1:?   1:lncRNA       0.831 
     1831        1:?   1:lncRNA       0.888 
     1832        1:?   1:lncRNA       0.831 
     1833        1:?   1:lncRNA       0.888 
     1834        1:?   1:lncRNA       0.831 
     1835        1:?   1:lncRNA       0.888 
     1836        1:?   1:lncRNA       0.888 
     1837        1:?   1:lncRNA       0.831 
     1838        1:?   1:lncRNA       0.888 
     1839        1:?   1:lncRNA       0.888 
     1840        1:?   1:lncRNA       0.888 
     1841        1:?   1:lncRNA       0.888 
     1842        1:?   1:lncRNA       0.831 
     1843        1:?   1:lncRNA       0.888 
     1844        1:?   1:lncRNA       0.888 
     1845        1:?   1:lncRNA       0.888 
     1846        1:?   1:lncRNA       0.888 
     1847        1:?   1:lncRNA       0.831 
     1848        1:?   1:lncRNA       0.888 
     1849        1:?   1:lncRNA       0.831 
     1850        1:?   1:lncRNA       0.888 
     1851        1:?   1:lncRNA       0.888 
     1852        1:?   1:lncRNA       0.888 
     1853        1:?   1:lncRNA       0.888 
     1854        1:?   1:lncRNA       0.888 
     1855        1:?   1:lncRNA       0.888 
     1856        1:?   1:lncRNA       0.888 
     1857        1:?   1:lncRNA       0.888 
     1858        1:?   1:lncRNA       0.888 
     1859        1:?   1:lncRNA       0.831 
     1860        1:?   1:lncRNA       0.888 
     1861        1:?   1:lncRNA       0.831 
     1862        1:?   1:lncRNA       0.888 
     1863        1:?   1:lncRNA       0.831 
     1864        1:?   1:lncRNA       0.888 
     1865        1:?   1:lncRNA       0.888 
     1866        1:?   1:lncRNA       0.888 
     1867        1:?   1:lncRNA       0.888 
     1868        1:?   1:lncRNA       0.888 
     1869        1:?   1:lncRNA       0.888 
     1870        1:?   1:lncRNA       0.888 
     1871        1:?   1:lncRNA       0.888 
     1872        1:?   1:lncRNA       0.888 
     1873        1:?   1:lncRNA       0.888 
     1874        1:?   1:lncRNA       0.888 
     1875        1:?   1:lncRNA       0.888 
     1876        1:?   1:lncRNA       0.831 
     1877        1:?   1:lncRNA       0.888 
     1878        1:?   1:lncRNA       0.888 
     1879        1:?   1:lncRNA       0.888 
     1880        1:?   1:lncRNA       0.888 
     1881        1:?   1:lncRNA       0.888 
     1882        1:?   1:lncRNA       0.831 
     1883        1:?   1:lncRNA       0.888 
     1884        1:?   1:lncRNA       0.888 
     1885        1:?   1:lncRNA       0.831 
     1886        1:?   1:lncRNA       0.888 
     1887        1:?   1:lncRNA       0.888 
     1888        1:?   1:lncRNA       0.888 
     1889        1:?   1:lncRNA       0.831 
     1890        1:?   1:lncRNA       0.888 
     1891        1:?   1:lncRNA       0.888 
     1892        1:?   1:lncRNA       0.888 
     1893        1:?   1:lncRNA       0.888 
     1894        1:?   1:lncRNA       0.888 
     1895        1:?   1:lncRNA       0.888 
     1896        1:?   1:lncRNA       0.888 
     1897        1:?   1:lncRNA       0.888 
     1898        1:?   1:lncRNA       0.831 
     1899        1:?   1:lncRNA       0.888 
     1900        1:?   1:lncRNA       0.888 
     1901        1:?   1:lncRNA       0.888 
     1902        1:?   1:lncRNA       0.888 
     1903        1:?   1:lncRNA       0.888 
     1904        1:?   1:lncRNA       0.888 
     1905        1:?   1:lncRNA       0.888 
     1906        1:?   1:lncRNA       0.888 
     1907        1:?   1:lncRNA       0.888 
     1908        1:?   1:lncRNA       0.831 
     1909        1:?   1:lncRNA       0.888 
     1910        1:?   1:lncRNA       0.888 
     1911        1:?   1:lncRNA       0.888 
     1912        1:?   1:lncRNA       0.888 
     1913        1:?   1:lncRNA       0.831 
     1914        1:?   1:lncRNA       0.831 
     1915        1:?   1:lncRNA       0.831 
     1916        1:?   1:lncRNA       0.888 
     1917        1:?   1:lncRNA       0.888 
     1918        1:?   1:lncRNA       0.888 
     1919        1:?   1:lncRNA       0.888 
     1920        1:?   1:lncRNA       0.831 
     1921        1:?   1:lncRNA       0.831 
     1922        1:?   1:lncRNA       0.888 
     1923        1:?   1:lncRNA       0.831 
     1924        1:?   1:lncRNA       0.888 
     1925        1:?   1:lncRNA       0.888 
     1926        1:?   1:lncRNA       0.888 
     1927        1:?   1:lncRNA       0.888 
     1928        1:?   1:lncRNA       0.888 
     1929        1:?   1:lncRNA       0.888 
     1930        1:?   1:lncRNA       0.888 
     1931        1:?   1:lncRNA       0.888 
     1932        1:?   1:lncRNA       0.888 
     1933        1:?   1:lncRNA       0.888 
     1934        1:?   1:lncRNA       0.874 
     1935        1:?   1:lncRNA       0.831 
     1936        1:?   1:lncRNA       0.888 
     1937        1:?   1:lncRNA       0.831 
     1938        1:?   1:lncRNA       0.831 
     1939        1:?   1:lncRNA       0.888 
     1940        1:?   1:lncRNA       0.831 
     1941        1:?   1:lncRNA       0.888 
     1942        1:?   1:lncRNA       0.831 
     1943        1:?   1:lncRNA       0.831 
     1944        1:?   1:lncRNA       0.831 
     1945        1:?   1:lncRNA       0.888 
     1946        1:?   1:lncRNA       0.888 
     1947        1:?   1:lncRNA       0.888 
     1948        1:?   1:lncRNA       0.888 
     1949        1:?   1:lncRNA       0.888 
     1950        1:?   1:lncRNA       0.888 
     1951        1:?   1:lncRNA       0.888 
     1952        1:?   1:lncRNA       0.888 
     1953        1:?   1:lncRNA       0.888 
     1954        1:?   1:lncRNA       0.888 
     1955        1:?   1:lncRNA       0.888 
     1956        1:?   1:lncRNA       0.888 
     1957        1:?   1:lncRNA       0.831 
     1958        1:?   1:lncRNA       0.888 
     1959        1:?   1:lncRNA       0.888 
     1960        1:?   1:lncRNA       0.888 
     1961        1:?   1:lncRNA       0.888 
     1962        1:?   1:lncRNA       0.888 
     1963        1:?   1:lncRNA       0.888 
     1964        1:?   1:lncRNA       0.888 
     1965        1:?   1:lncRNA       0.888 
     1966        1:?   1:lncRNA       0.888 
     1967        1:?   1:lncRNA       0.888 
     1968        1:?   1:lncRNA       0.888 
     1969        1:?   1:lncRNA       0.888 
     1970        1:?   1:lncRNA       0.888 
     1971        1:?   1:lncRNA       0.888 
     1972        1:?   1:lncRNA       0.888 
     1973        1:?   1:lncRNA       0.888 
     1974        1:?   1:lncRNA       0.888 
     1975        1:?   1:lncRNA       0.888 
     1976        1:?   1:lncRNA       0.831 
     1977        1:?   1:lncRNA       0.888 
     1978        1:?   1:lncRNA       0.831 
     1979        1:?   1:lncRNA       0.888 
     1980        1:?   1:lncRNA       0.831 
     1981        1:?   1:lncRNA       0.888 
     1982        1:?   1:lncRNA       0.888 
     1983        1:?   1:lncRNA       0.888 
     1984        1:?   1:lncRNA       0.888 
     1985        1:?   1:lncRNA       0.831 
     1986        1:?   1:lncRNA       0.888 
     1987        1:?   1:lncRNA       0.888 
     1988        1:?   1:lncRNA       0.888 
     1989        1:?   1:lncRNA       0.888 
     1990        1:?   1:lncRNA       0.888 
     1991        1:?   1:lncRNA       0.888 
     1992        1:?   1:lncRNA       0.888 
     1993        1:?   1:lncRNA       0.831 
     1994        1:?   1:lncRNA       0.888 
     1995        1:?   1:lncRNA       0.888 
     1996        1:?   1:lncRNA       0.888 
     1997        1:?   1:lncRNA       0.888 
     1998        1:?   1:lncRNA       0.888 
     1999        1:?   1:lncRNA       0.831 
     2000        1:?   1:lncRNA       0.888 
     2001        1:?   1:lncRNA       0.888 
     2002        1:?   1:lncRNA       0.888 
     2003        1:?   1:lncRNA       0.888 
     2004        1:?   1:lncRNA       0.888 
     2005        1:?   1:lncRNA       0.888 
     2006        1:?   1:lncRNA       0.888 
     2007        1:?   1:lncRNA       0.831 
     2008        1:?   1:lncRNA       0.888 
     2009        1:?   1:lncRNA       0.888 
     2010        1:?   1:lncRNA       0.888 
     2011        1:?   1:lncRNA       0.888 
     2012        1:?   1:lncRNA       0.888 
     2013        1:?   1:lncRNA       0.888 
     2014        1:?   1:lncRNA       0.888 
     2015        1:?   1:lncRNA       0.888 
     2016        1:?   1:lncRNA       0.888 
     2017        1:?   1:lncRNA       0.888 
     2018        1:?   1:lncRNA       0.888 
     2019        1:?   1:lncRNA       0.888 
     2020        1:?   1:lncRNA       0.831 
     2021        1:?   1:lncRNA       0.888 
     2022        1:?   1:lncRNA       0.888 
     2023        1:?   1:lncRNA       0.888 
     2024        1:?   1:lncRNA       0.888 
     2025        1:?   1:lncRNA       0.888 
     2026        1:?   1:lncRNA       0.831 
     2027        1:?   1:lncRNA       0.888 
     2028        1:?   1:lncRNA       0.831 
     2029        1:?   1:lncRNA       0.888 
     2030        1:?   1:lncRNA       0.888 
     2031        1:?   1:lncRNA       0.888 
     2032        1:?   1:lncRNA       0.888 
     2033        1:?   1:lncRNA       0.831 
     2034        1:?   1:lncRNA       0.888 
     2035        1:?   1:lncRNA       0.888 
     2036        1:?   1:lncRNA       0.888 
     2037        1:?   1:lncRNA       0.888 
     2038        1:?   1:lncRNA       0.888 
     2039        1:?   1:lncRNA       0.831 
     2040        1:?   1:lncRNA       0.888 
     2041        1:?   1:lncRNA       0.831 
     2042        1:?   1:lncRNA       0.831 
     2043        1:?   1:lncRNA       0.888 
     2044        1:?   1:lncRNA       0.888 
     2045        1:?   1:lncRNA       0.888 
     2046        1:?   1:lncRNA       0.888 
     2047        1:?   1:lncRNA       0.888 
     2048        1:?   1:lncRNA       0.888 
     2049        1:?   1:lncRNA       0.888 
     2050        1:?   1:lncRNA       0.888 
     2051        1:?   1:lncRNA       0.888 
     2052        1:?   1:lncRNA       0.888 
     2053        1:?   1:lncRNA       0.831 
     2054        1:?   1:lncRNA       0.831 
     2055        1:?   1:lncRNA       0.888 
     2056        1:?   1:lncRNA       0.831 
     2057        1:?   1:lncRNA       0.888 
     2058        1:?   1:lncRNA       0.888 
     2059        1:?   1:lncRNA       0.888 
     2060        1:?   1:lncRNA       0.888 
     2061        1:?   1:lncRNA       0.888 
     2062        1:?   1:lncRNA       0.888 
     2063        1:?   1:lncRNA       0.831 
     2064        1:?   1:lncRNA       0.888 
     2065        1:?   1:lncRNA       0.888 
     2066        1:?   1:lncRNA       0.888 
     2067        1:?   1:lncRNA       0.888 
     2068        1:?   1:lncRNA       0.831 
     2069        1:?   1:lncRNA       0.831 
     2070        1:?   1:lncRNA       0.831 
     2071        1:?   1:lncRNA       0.831 
     2072        1:?   1:lncRNA       0.888 
     2073        1:?   1:lncRNA       0.831 
     2074        1:?   1:lncRNA       0.888 
     2075        1:?   1:lncRNA       0.888 
     2076        1:?   1:lncRNA       0.888 
     2077        1:?   1:lncRNA       0.888 
     2078        1:?   1:lncRNA       0.831 
     2079        1:?   1:lncRNA       0.888 
     2080        1:?   1:lncRNA       0.888 
     2081        1:?   1:lncRNA       0.831 
     2082        1:?   1:lncRNA       0.888 
     2083        1:?   1:lncRNA       0.888 
     2084        1:?   1:lncRNA       0.888 
     2085        1:?   1:lncRNA       0.888 
     2086        1:?   1:lncRNA       0.888 
     2087        1:?   1:lncRNA       0.888 
     2088        1:?   1:lncRNA       0.831 
     2089        1:?   1:lncRNA       0.831 
     2090        1:?   1:lncRNA       0.888 
     2091        1:?   1:lncRNA       0.888 
     2092        1:?   1:lncRNA       0.888 
     2093        1:?   1:lncRNA       0.888 
     2094        1:?   1:lncRNA       0.888 
     2095        1:?   1:lncRNA       0.888 
     2096        1:?   1:lncRNA       0.888 
     2097        1:?   1:lncRNA       0.831 
     2098        1:?   1:lncRNA       0.888 
     2099        1:?   1:lncRNA       0.888 
     2100        1:?   1:lncRNA       0.888 
     2101        1:?   1:lncRNA       0.888 
     2102        1:?   1:lncRNA       0.888 
     2103        1:?   1:lncRNA       0.831 
     2104        1:?   1:lncRNA       0.831 
     2105        1:?   1:lncRNA       0.888 
     2106        1:?   1:lncRNA       0.888 
     2107        1:?   1:lncRNA       0.888 
     2108        1:?   1:lncRNA       0.888 
     2109        1:?   1:lncRNA       0.888 
     2110        1:?   1:lncRNA       0.888 
     2111        1:?   1:lncRNA       0.888 
     2112        1:?   1:lncRNA       0.888 
     2113        1:?   1:lncRNA       0.888 
     2114        1:?   1:lncRNA       0.831 
     2115        1:?   1:lncRNA       0.888 
     2116        1:?   1:lncRNA       0.888 
     2117        1:?   1:lncRNA       0.888 
     2118        1:?   1:lncRNA       0.831 
     2119        1:?   1:lncRNA       0.831 
     2120        1:?   1:lncRNA       0.888 
     2121        1:?   1:lncRNA       0.888 
     2122        1:?   1:lncRNA       0.888 
     2123        1:?   1:lncRNA       0.888 
     2124        1:?   1:lncRNA       0.888 
     2125        1:?   1:lncRNA       0.888 
     2126        1:?   1:lncRNA       0.831 
     2127        1:?   1:lncRNA       0.888 
     2128        1:?   1:lncRNA       0.888 
     2129        1:?   1:lncRNA       0.831 
     2130        1:?   1:lncRNA       0.888 
     2131        1:?   1:lncRNA       0.888 
     2132        1:?   1:lncRNA       0.888 
     2133        1:?   1:lncRNA       0.888 
     2134        1:?   1:lncRNA       0.888 
     2135        1:?   1:lncRNA       0.831 
     2136        1:?   1:lncRNA       0.831 
     2137        1:?   1:lncRNA       0.888 
     2138        1:?   1:lncRNA       0.888 
     2139        1:?   1:lncRNA       0.888 
     2140        1:?   1:lncRNA       0.888 
     2141        1:?   1:lncRNA       0.831 
     2142        1:?   1:lncRNA       0.831 
     2143        1:?   1:lncRNA       0.888 
     2144        1:?   1:lncRNA       0.888 
     2145        1:?   1:lncRNA       0.888 
     2146        1:?   1:lncRNA       0.888 
     2147        1:?   1:lncRNA       0.888 
     2148        1:?   1:lncRNA       0.888 
     2149        1:?   1:lncRNA       0.888 
     2150        1:?   1:lncRNA       0.831 
     2151        1:?   1:lncRNA       0.888 
     2152        1:?   1:lncRNA       0.888 
     2153        1:?   1:lncRNA       0.831 
     2154        1:?   1:lncRNA       0.888 
     2155        1:?   1:lncRNA       0.888 
     2156        1:?   1:lncRNA       0.888 
     2157        1:?   1:lncRNA       0.888 
     2158        1:?   1:lncRNA       0.831 
     2159        1:?   1:lncRNA       0.888 
     2160        1:?   1:lncRNA       0.888 
     2161        1:?   1:lncRNA       0.831 
     2162        1:?   1:lncRNA       0.888 
     2163        1:?   1:lncRNA       0.888 
     2164        1:?   1:lncRNA       0.888 
     2165        1:?   1:lncRNA       0.888 
     2166        1:?   1:lncRNA       0.888 
     2167        1:?   1:lncRNA       0.888 
     2168        1:?   1:lncRNA       0.888 
     2169        1:?   1:lncRNA       0.831 
     2170        1:?   1:lncRNA       0.888 
     2171        1:?   1:lncRNA       0.888 
     2172        1:?   1:lncRNA       0.888 
     2173        1:?   1:lncRNA       0.831 
     2174        1:?   1:lncRNA       0.888 
     2175        1:?   1:lncRNA       0.888 
     2176        1:?   1:lncRNA       0.831 
     2177        1:?   1:lncRNA       0.888 
     2178        1:?   1:lncRNA       0.888 
     2179        1:?   1:lncRNA       0.888 
     2180        1:?   1:lncRNA       0.874 
     2181        1:?   1:lncRNA       0.888 
     2182        1:?   1:lncRNA       0.888 
     2183        1:?   1:lncRNA       0.888 
     2184        1:?   1:lncRNA       0.888 
     2185        1:?   1:lncRNA       0.888 
     2186        1:?   1:lncRNA       0.831 
     2187        1:?   1:lncRNA       0.874 
     2188        1:?   1:lncRNA       0.888 
     2189        1:?   1:lncRNA       0.888 
     2190        1:?   1:lncRNA       0.888 
     2191        1:?   1:lncRNA       0.888 
     2192        1:?   1:lncRNA       0.888 
     2193        1:?   1:lncRNA       0.888 
